{"fc1_weight": [[-0.023630265146493912, 0.028087660670280457, 0.02541046217083931, 0.015232530422508717, -0.016958845779299736, 0.02137148380279541, -0.013560446910560131, -0.0033572432585060596, 0.028996257111430168, 0.006361279170960188, -0.016460221260786057, 0.014964126981794834, 0.017818927764892578, 0.01480565220117569, 0.025469763204455376, 0.0065370118245482445, -0.02197335660457611, 0.02538410574197769, 0.008006381802260876, -0.03148537501692772, -0.006926204077899456, 0.02050546556711197, 0.0262569822371006, 0.003030344843864441, 0.004077845253050327, 0.03299874812364578, -0.004445961676537991, 0.025681808590888977, -0.030137799680233, 0.003954107873141766, -0.010515730828046799, -0.03445708751678467, -0.025784995406866074, 0.02986256778240204, -0.03267861530184746, -0.0027076893020421267, -0.017565619200468063, -0.014742499217391014, 0.0029558928217738867, 0.026116440072655678, 8.15746680018492e-05, -0.014878576621413231, -0.021196404471993446, -0.020283404737710953, 0.02667577564716339, -0.018434960395097733, -0.008218645118176937, -0.022756824269890785, 0.005551445297896862, 0.03293800354003906, 0.015042107552289963, -0.01211991161108017, 0.013095549307763577, 0.030276725068688393, 0.00291976286098361, -0.03456859290599823, -0.00042559043504297733, 0.02383662387728691, 0.005976554471999407, -0.018266484141349792, -0.026716236025094986, 0.009619238786399364, -0.028480010107159615, 0.022084061056375504, 0.034299205988645554, 0.04422394186258316, -0.008753578178584576, 6.925458728801459e-05, -0.006850899197161198, 0.012276635505259037, 0.0011236682767048478, -0.011224731802940369, 0.015849940478801727, -0.0010172870242968202, 0.008462137542665005, 0.0232649277895689, -0.018556464463472366, -0.015730956569314003, 0.016025478020310402, 0.0019357299897819757, 0.022333087399601936, 0.004733007401227951, 0.025259334594011307, 0.002507612109184265, -0.0008127440232783556, -0.0041856709867715836, 0.028276966884732246, -0.025201572105288506, 0.025526048615574837, -0.0260874405503273, -0.02124340645968914, -0.015464632771909237, 0.00032945603015832603, 0.016806161031126976, 0.015148446895182133, 0.09491264075040817, 0.0915452316403389, 0.03224121034145355, 0.0010891436832025647, 0.010155512019991875, 0.009138022549450397, -0.023839490488171577, -0.01570836640894413, 0.029360953718423843, -0.025650998577475548, -0.02070874720811844, 0.015294307842850685, 0.002322605112567544, 0.02483532205224037, -0.023032141849398613, -0.009033218957483768, 0.031546320766210556, 0.02438170462846756, 0.03581593930721283, -0.005538450088351965, 0.03518693521618843, -0.001142930006608367, 0.03602956607937813, 0.004239886533468962, 0.04200628772377968, 0.039424631744623184, 0.09034846723079681, 0.06685084849596024, 0.0890754982829094, 0.09889254719018936, 0.02442089095711708, 0.03420066833496094, -0.018932314589619637, -0.008030877448618412, 0.03264741227030754, -0.02867068722844124, 0.016710301861166954, -0.03876577690243721, 0.01642669178545475, 0.011835919693112373, 0.0034181256778538227, -0.013812871649861336, -0.027237724512815475, 0.03214960917830467, -0.031839169561862946, -0.01642206870019436, 0.03232068940997124, 0.014788022264838219, 0.022495005279779434, -0.012954399921000004, -0.007787294220179319, 0.046729475259780884, 0.04670827090740204, 0.040703173726797104, -0.014177894219756126, 0.010572448372840881, 0.0004854652797803283, -0.03080904670059681, -0.03410044312477112, -0.00043694840860553086, -0.0003782075073104352, 0.012430790811777115, 0.008607934229075909, 0.07683374732732773, 0.02614944986999035, -0.0038017851766198874, -0.026863932609558105, -0.029209014028310776, -0.01883700117468834, -0.024921046569943428, 0.029746240004897118, 0.024006571620702744, -0.0258089080452919, 0.032506152987480164, 0.03327063098549843, -0.02208700031042099, 0.030162710696458817, 0.009107704274356365, 0.008401534520089626, -0.00995562132447958, -0.027793997898697853, -0.05123592168092728, -0.10617541521787643, -0.1204843521118164, -0.10728251188993454, -0.009200328029692173, -0.06906206160783768, 0.01328443642705679, -0.00544054014608264, 0.044150210916996, 0.019067147746682167, 0.03230490908026695, 0.01616089418530464, -0.008477924391627312, -0.0075606852769851685, -0.03990533575415611, -0.028413455933332443, -0.05550746992230415, -0.021032005548477173, -0.022536246106028557, 0.005057019647210836, -0.008826551027595997, 0.029926199465990067, -0.0048926519230008125, 0.03135842829942703, 0.06084713339805603, 0.03670790418982506, -0.02087172120809555, -0.13317710161209106, -0.169661745429039, -0.1481703519821167, -0.1471785604953766, -0.02247757837176323, -0.09509259462356567, -0.04252946004271507, 0.018749738112092018, -0.012976108118891716, 0.02985922433435917, 0.022574175149202347, -0.0001941151567734778, -0.0269057285040617, -0.01827974058687687, -0.0760088786482811, -0.0715792179107666, -0.09937898814678192, -0.019507387652993202, 0.0013609945308417082, -0.02533031813800335, 0.014209971763193607, 0.015017957426607609, -0.009610479697585106, -0.0064639681950211525, 0.029053261503577232, 0.031237957999110222, -0.024701988324522972, -0.09877018630504608, -0.15557384490966797, -0.19979314506053925, -0.21454694867134094, -0.13815872371196747, -0.14108480513095856, -0.13824722170829773, -0.09362458437681198, -0.014919687993824482, 0.00035225218744017184, 0.019261445850133896, -0.008567365817725658, 0.016237180680036545, 0.06405338644981384, 0.04173680767416954, -0.002124881139025092, -0.07072225958108902, -0.1517302691936493, -0.0961829125881195, -0.008149185217916965, -0.0240947213023901, 0.029784856364130974, 0.030965575948357582, -0.014091898687183857, -0.03127821534872055, 0.00490690628066659, -0.0204006377607584, -0.08073374629020691, -0.1692652851343155, -0.17757339775562286, -0.17461514472961426, -0.15675508975982666, -0.04797734320163727, -0.10086672008037567, -0.03405562788248062, 0.016642482951283455, 0.006979953497648239, 0.030626807361841202, -0.031418636441230774, -0.04287072271108627, 0.07073214650154114, 0.06868138909339905, 0.057264674454927444, -0.06050676852464676, -0.09598338603973389, -0.18757538497447968, -0.12632259726524353, -0.02354036457836628, 0.004008596763014793, -0.019147176295518875, 0.012254358269274235, 0.02040219120681286, -0.033753834664821625, -0.042112063616514206, -0.07403622567653656, -0.06495138257741928, -0.13232626020908356, -0.1530156433582306, -0.1412041336297989, -0.09645356982946396, -0.010546635836362839, -0.07120554149150848, 0.04966842010617256, -0.07053697109222412, -0.1266711950302124, -0.1618458330631256, -0.15030504763126373, -0.05126352980732918, -0.018607446923851967, -0.010596191510558128, -0.02575179748237133, -0.05924538895487785, -0.11700518429279327, -0.18097758293151855, -0.1065070778131485, -0.044891905039548874, 0.008581486530601978, 0.02161027304828167, 0.0029627024196088314, 0.016899926587939262, -0.040586281567811966, -0.013496545143425465, -0.11573019623756409, -0.09979212284088135, -0.09995301812887192, -0.16450852155685425, -0.046926915645599365, -0.01041671447455883, -0.019528690725564957, -0.07203174382448196, -0.04834400489926338, -0.08939459919929504, -0.2051977962255478, -0.2834874987602234, -0.22310025990009308, -0.10046322643756866, -0.05961198732256889, 0.07307586818933487, 0.024982932955026627, -0.08383631706237793, -0.08990807831287384, -0.12600499391555786, -0.09034795314073563, -0.008685130625963211, -0.03292154148221016, 0.026070570573210716, -0.02154761739075184, 0.024544943124055862, -0.01184223871678114, -0.044579584151506424, -0.05962688475847244, -0.04253445565700531, -0.06733174622058868, -0.09454555809497833, -0.03857101872563362, 0.03552268445491791, 0.015403511933982372, -0.09142883121967316, -0.07665715366601944, -0.05083813518285751, -0.15299634635448456, -0.22435182332992554, -0.17967045307159424, -0.1765274852514267, -0.08337679505348206, 0.01321377046406269, -0.028579527512192726, -0.06720156967639923, -0.053898755460977554, -0.11130768060684204, -0.06373851001262665, -0.0020719184540212154, -0.028920551761984825, -0.015707459300756454, -0.004775124602019787, 0.018681516870856285, -0.035014789551496506, -0.01789497584104538, -0.04799395054578781, -0.01161111705005169, -0.020581809803843498, -0.0011119914706796408, 0.07680384069681168, -0.019556228071451187, -0.06283530592918396, -0.13298960030078888, -0.030753564089536667, -0.024262934923171997, -0.08748624473810196, -0.16667619347572327, -0.09573633223772049, -0.08422330021858215, -0.07168904691934586, 0.022920159623026848, -0.007471330463886261, 0.0010975201148539782, -0.05953310430049896, -0.00216856156475842, -0.01791420392692089, 0.014587468467652798, 0.012441706843674183, 0.01684042438864708, 0.01374356634914875, -0.014713931828737259, 0.015971647575497627, -0.0026231715455651283, 0.0066481688991189, -0.008509193547070026, 0.015174424275755882, 0.1192963570356369, 0.06023555248975754, 0.07464787364006042, -0.027661319822072983, -0.06662377715110779, 0.007250152062624693, -0.030578067526221275, -0.12043636292219162, -0.03484555706381798, 0.09594647586345673, 0.05998444929718971, -0.023562515154480934, -0.002952196169644594, 0.014403221197426319, 0.03341298922896385, -0.02677037939429283, -0.03274654597043991, 0.0018344622803851962, 0.009455963037908077, 0.017627576366066933, -0.022575629875063896, -0.030543265864253044, -0.005010197404772043, -0.004820030182600021, 0.023349352180957794, 0.07888748496770859, 0.13757194578647614, 0.08235574513673782, 0.11090744286775589, 0.1620163917541504, 0.059978924691677094, -0.025024404749274254, 0.07327403128147125, 0.11521463096141815, 0.000404795806389302, -0.029320374131202698, 0.05690159648656845, 0.1482481062412262, 0.14863809943199158, 0.03312695398926735, 0.05936207249760628, 0.021335504949092865, 0.013305877335369587, 0.015128222294151783, 0.0423833429813385, 0.025871790945529938, 0.025878986343741417, 0.04789796471595764, -0.020090924575924873, 0.0032162941060960293, -0.00277321576140821, -0.03240085020661354, 0.07509516924619675, 0.08869960904121399, 0.13906221091747284, 0.14620861411094666, 0.19745579361915588, 0.13417848944664001, 0.156259223818779, 0.16620931029319763, 0.28437942266464233, 0.19176211953163147, 0.09861064702272415, -0.020363302901387215, 0.0878022164106369, 0.2456885129213333, 0.20145654678344727, 0.13454680144786835, 0.08011885732412338, 0.042776599526405334, 0.09115124493837357, 0.06010609120130539, 0.006013191770762205, 0.059717535972595215, 0.062154144048690796, -0.012272564694285393, 0.003158276667818427, 0.028655650094151497, -0.00939250085502863, -0.015446835197508335, 0.06496614217758179, 0.06170162931084633, 0.10404807329177856, 0.1840077042579651, 0.15211354196071625, 0.26317110657691956, 0.21757955849170685, 0.30509430170059204, 0.3110506236553192, 0.1475258320569992, 0.09072726219892502, 0.03832292929291725, 0.13293379545211792, 0.226104736328125, 0.17870570719242096, 0.1964278370141983, 0.09846880286931992, 0.01048675924539566, 0.07957066595554352, 0.08846049755811691, 0.0168048907071352, -0.0033641813788563013, 0.036460019648075104, -0.02557678148150444, -0.02636309340596199, -2.6783305656863376e-05, -0.026484178379178047, -0.029275931417942047, 0.06565874069929123, 0.14257769286632538, 0.12414956092834473, 0.12957023084163666, 0.17179273068904877, 0.1933470070362091, 0.18238742649555206, 0.19481061398983002, 0.07454875111579895, 0.09189634025096893, 0.11233433336019516, 0.08401241898536682, 0.10149364918470383, 0.23934794962406158, 0.11032513529062271, 0.11092129349708557, 0.11718516051769257, 0.03796865791082382, 0.11512380838394165, 0.046288639307022095, 0.08018308877944946, 0.03286213055253029, 0.013019820675253868, 0.01539584156125784, -0.0173757616430521, 0.024713784456253052, 0.005769168492406607, 0.00914523471146822, 0.016126150265336037, 0.13439367711544037, 0.11612012982368469, 0.043267104774713516, 0.0672030970454216, 0.041389159858226776, 0.0028174277395009995, 0.012039831839501858, 0.05926588922739029, -0.0052266898564994335, -0.011106583289802074, 0.07773873209953308, 0.08846534043550491, 0.05760711804032326, 0.045576151460409164, 0.05707501620054245, 0.12876176834106445, 0.10168080031871796, 0.11637510359287262, 0.054745160043239594, 0.0332195982336998, 0.04119424149394035, 0.04739844799041748, 0.0029358770698308945, 0.028504235669970512, 0.018286723643541336, -0.0064036669209599495, 0.0001334492990281433, 0.058844443410634995, 0.12281874567270279, 0.05734157934784889, 0.007264228072017431, 0.02072901278734207, -0.004352981224656105, 0.008683986030519009, -0.103415347635746, -0.10759583860635757, -0.16196511685848236, -0.19514130055904388, -0.12529513239860535, -0.03305913880467415, 0.028437970206141472, 0.03472720831632614, 0.10968002676963806, 0.08004119992256165, 0.06892284750938416, 0.11826395243406296, 0.03572617471218109, 0.01889706961810589, 0.016161983832716942, -0.017910383641719818, -0.023014193400740623, 0.03316434100270271, -0.020386777818202972, 0.03380639851093292, 0.04212166741490364, 0.07751703262329102, 0.07569093257188797, 0.03566862642765045, -0.020403433591127396, -0.06876640766859055, -0.02885344624519348, -0.09919016808271408, -0.12316101044416428, -0.15401171147823334, -0.1360638290643692, -0.13872726261615753, -0.12896046042442322, -0.07847567647695541, 0.03141382336616516, -0.00019264368165750057, 0.026567747816443443, 0.07445700466632843, 0.04325076565146446, 0.06010279059410095, 0.09158293157815933, 0.020110029727220535, 0.040743131190538406, -0.01072744745761156, 0.014529622159898281, 0.027255499735474586, 0.013630518689751625, -0.00013830576790496707, 0.029298298060894012, -0.005045929457992315, -0.011479095555841923, -0.008463925682008266, -0.11130313575267792, -0.15164566040039062, -0.15686260163784027, -0.12585711479187012, -0.14957982301712036, -0.1548174023628235, -0.07679513096809387, -0.0609053410589695, -0.10147832334041595, -0.07242728024721146, -0.059085093438625336, -0.13680659234523773, -0.046411994844675064, -0.028144970536231995, 0.05566409230232239, 0.08814485371112823, 0.06730218231678009, 0.010137527249753475, 0.023983480408787727, -0.03578738495707512, -0.027885129675269127, -0.028379321098327637, 0.03216008469462395, 0.034937381744384766, 0.029841668903827667, 0.021053774282336235, 0.029267607256770134, -0.0027161960024386644, -0.0866883173584938, -0.07129300385713577, -0.160066619515419, -0.17014284431934357, -0.13427303731441498, -0.13253936171531677, -0.06446079164743423, -0.06760784983634949, -0.0781814232468605, -0.06768681108951569, -0.16602537035942078, -0.20459063351154327, -0.07117331773042679, -0.0565088614821434, 0.002480307361111045, 0.06641389429569244, 0.03633200004696846, 0.062057897448539734, 0.03334711119532585, 0.013460041023790836, 0.01925450563430786, -0.031218694522976875, -0.02165916934609413, 0.013645701110363007, -0.01069341879338026, -0.011138332076370716, -0.022601522505283356, -0.01605186238884926, -0.02666374482214451, -0.04546225816011429, -0.011023242957890034, -0.07463695108890533, -0.0703100711107254, -0.013367995619773865, -0.06251628696918488, -0.09336747974157333, -0.030168792232871056, -0.0327339805662632, -0.07872755080461502, -0.08825129270553589, -0.001179938088171184, -0.0005072373314760625, 0.07749105989933014, 0.01975833810865879, 0.013039924204349518, -0.009160669520497322, -0.007649176754057407, -0.0053165750578045845, 0.03139198571443558, -0.01243546325713396, -0.007808081805706024, 0.008633138611912727, -0.014890466816723347, -0.017976930364966393, -0.007297065109014511, -0.002677999436855316, 0.007655681110918522, -0.01744014583528042, -0.0140935517847538, -0.029209569096565247, -0.018259862437844276, 0.03854238614439964, -0.0025275058578699827, -0.010861320421099663, 0.02047574147582054, 0.010740207508206367, -0.012322994880378246, -0.02962278015911579, 0.015106521546840668, 0.0436013862490654, 0.06031544879078865, -0.0027692997828125954, 0.008823930285871029, 0.021357456222176552, -0.017545998096466064, -0.022041747346520424, 0.008781534619629383, -0.018062934279441833, -0.008785156533122063, -0.025548666715621948, -0.030644521117210388, -0.017055485397577286, 0.029781309887766838, -0.02617873251438141, 0.027599891647696495, -0.021590249612927437, -0.010236382484436035, 0.0007431817357428372, -0.03395162522792816, 0.010703286156058311, 0.00261540524661541, 0.0020635651890188456, 0.007059099152684212, -0.03178594261407852, -0.01534532755613327, -0.0037264220882207155, -0.05277266725897789, -0.011465463787317276, 0.02048763446509838, -0.020580004900693893, 0.02045695297420025, 0.010825379751622677, -0.025117380544543266, -0.031460996717214584, 0.03549869358539581, 0.027241623029112816, -0.018611516803503036, 0.008027537725865841, -0.032950107008218765, 0.03613804280757904, 0.03351781889796257, -0.026450160890817642, 0.03359517455101013, -0.006018358748406172, 0.02458556368947029, -0.021436164155602455, -0.036475177854299545, 0.015145781449973583, -0.007785014342516661, 0.001424197107553482, 0.0013933400623500347, -0.033958788961172104, -0.038305360823869705, 0.008055320009589195, -0.028594674542546272, 0.025496236979961395, 0.025748658925294876, 0.010719656944274902, -0.016567112877964973, -0.011622928082942963, 0.0038987547159194946, 0.02608271688222885, -0.014742315746843815, -0.0016180514357984066], [0.009613505564630032, -0.0019086423562839627, -0.005413276143372059, 0.022423040121793747, -0.01723012700676918, -0.004394796211272478, -0.039757002145051956, -0.02474002167582512, 0.011585061438381672, -0.008997890166938305, 0.012697569094598293, 0.010341574437916279, 0.012343212030827999, -0.03295070677995682, -0.01693403162062168, 0.004904392175376415, -0.03207158297300339, 0.020369797945022583, 0.018206225708127022, 0.02312494069337845, -0.027430009096860886, 0.015629148110747337, 0.00497369933873415, -0.009614034555852413, -0.01307604555040598, -0.013808599673211575, -0.01734742894768715, -0.03434476628899574, -0.04496929422020912, -0.02593838796019554, -0.029004426673054695, 0.020449131727218628, 0.015886671841144562, -0.008641387335956097, -0.0309553612023592, 0.012438083998858929, -0.050594329833984375, -0.03519560769200325, -0.007341743912547827, 0.016550607979297638, -0.05067572742700577, 0.014976256527006626, -0.013883844017982483, -0.04662470147013664, -0.017387021332979202, 0.005569465924054384, 0.0015800314722582698, -0.048125866800546646, -0.021231673657894135, -0.04642929509282112, -0.037249334156513214, -0.04671061784029007, 0.009118678979575634, -0.02635231986641884, -0.03600110113620758, 0.011890183202922344, -0.03264913335442543, -0.017461318522691727, -0.02062351070344448, 0.015111852437257767, -0.01856868527829647, -0.014948750846087933, 0.0019028179813176394, -0.04793039709329605, -0.015294887125492096, -0.02378528192639351, 0.0016284971497952938, -0.06888649612665176, -0.051471319049596786, -0.057058561593294144, -0.08251050114631653, -0.03878593072295189, -0.07151870429515839, -0.062279678881168365, 0.0017220750451087952, -0.045531243085861206, -0.04031139612197876, 0.00567055307328701, -0.054864272475242615, -0.03414371237158775, -0.038155216723680496, -0.04098816588521004, -0.010584919713437557, 0.006668661255389452, -0.03527466952800751, 0.013431797735393047, -0.017664192244410515, -0.022966817021369934, 0.005890552420169115, 0.02453429065644741, -0.021210474893450737, -0.011334924027323723, -0.05899878591299057, -0.08508815616369247, -0.06152581423521042, -0.11759543418884277, -0.0697302594780922, -0.15631628036499023, -0.11855051666498184, -0.10368315130472183, -0.12940795719623566, -0.12871910631656647, -0.048794712871313095, -0.07278269529342651, -0.06717164069414139, -0.06528498232364655, -0.00978957861661911, -0.011368608102202415, -0.01778375916182995, -0.04330383613705635, 0.018184415996074677, -0.014310791157186031, -0.032504260540008545, -0.0027379044331610203, -0.021494528278708458, 0.0036605806089937687, -0.005637057591229677, -0.03261875733733177, 0.0013769097859039903, -0.053607963025569916, -0.07891210168600082, -0.047792162746191025, -0.04342405125498772, -0.02487856149673462, -0.08306891471147537, -0.07181078940629959, -0.048558998852968216, -0.07393927127122879, -0.10399783402681351, -0.12318448722362518, -0.041777968406677246, -0.07765880227088928, -0.07972961664199829, -0.02013108693063259, -0.004702371545135975, -0.02378828078508377, 0.02747359499335289, 0.006230816710740328, -0.0003295480855740607, 0.015318692661821842, -0.01561522576957941, -0.01693262904882431, -0.04618082940578461, 0.027283454313874245, 0.0024547288194298744, 0.010181587189435959, -0.003486443543806672, -0.013341397978365421, -0.04726261645555496, -0.09599923342466354, -0.060028716921806335, 0.05216451734304428, 0.08841150999069214, -0.0013367267092689872, -0.08926104009151459, -0.1159931868314743, -0.07954642176628113, -0.0927826389670372, -0.11986254155635834, -0.0753462165594101, 0.0037505098152905703, -0.04547720029950142, -0.037852346897125244, -0.08005664497613907, 0.015058868564665318, -0.004782199859619141, 0.015604190528392792, -0.03472662717103958, -0.036473751068115234, -0.044684864580631256, -0.04318682849407196, 0.00843652244657278, 0.011540035717189312, 0.046552348881959915, 0.00929939467459917, 0.025063378736376762, 0.042382560670375824, 0.043624117970466614, 0.08816676586866379, 0.0698854848742485, 0.021914543583989143, 0.06659159809350967, 0.022148575633764267, 0.008603973314166069, -0.004009116441011429, 0.03513520583510399, -0.03700726479291916, 0.05968224257230759, 0.09052784740924835, -0.02893158793449402, -0.030218373984098434, 0.045438166707754135, 0.027557503432035446, 0.027963975444436073, -0.03994346037507057, -0.05018499866127968, -0.04138290509581566, 0.019739020615816116, -0.018748916685581207, 0.02313072420656681, 0.010223206132650375, 0.0005624695913866162, 0.01978057250380516, 0.03966972604393959, 0.08187226206064224, 0.06588985025882721, 0.08086009323596954, 0.0027573646511882544, 0.007337897550314665, 0.036001671105623245, 0.04786284640431404, 0.12016100436449051, 0.06251309812068939, -0.031539320945739746, 0.009293547831475735, 0.031180009245872498, 0.05358723923563957, 0.02940426394343376, 0.03516651690006256, 0.08347423374652863, 0.00861341692507267, 0.006678996607661247, 0.01626191847026348, -0.0346367321908474, -0.01326762419193983, -0.015779701992869377, 0.008019918575882912, 0.001775701530277729, 0.008542121388018131, 0.004060813691467047, 0.04818813130259514, 0.10985590517520905, 0.10313007235527039, 0.06237058341503143, 0.0035072050523012877, -0.014150167815387249, -0.006136585492640734, 0.11919327825307846, 0.03118445910513401, 0.04178516939282417, 0.0157417431473732, 0.001159638399258256, 0.0924823060631752, 0.032947033643722534, 0.04873322322964668, 0.06016147881746292, 0.0806853175163269, 0.10239046066999435, 0.10250065475702286, 0.030117973685264587, 0.01939989998936653, 0.001249241642653942, 0.0048783342353999615, -0.019552242010831833, -0.014464382082223892, 0.033872999250888824, -0.02219984121620655, 0.07001284509897232, 0.13839587569236755, 0.08680543303489685, 0.08309870958328247, 0.010304502211511135, 0.02560945600271225, 0.008294781669974327, 0.06070185452699661, 0.19048652052879333, 0.08794210106134415, 0.012089099735021591, 0.0598059818148613, 0.04641139879822731, -0.002195194596424699, -0.010373461060225964, 0.04648343473672867, 0.12257073074579239, 0.17663408815860748, 0.11929798126220703, 0.051188576966524124, 0.04512573033571243, 0.03731958568096161, -0.021715199574828148, -0.01800278015434742, -0.03608601912856102, -0.03981882706284523, -0.017951499670743942, 0.04493868350982666, 0.049499716609716415, 0.13290935754776, 0.0862000435590744, -0.0011177645064890385, 0.0135609470307827, 0.033292703330516815, 0.05330199748277664, 0.11304045468568802, 0.06428965926170349, 0.012433433905243874, -0.04593581333756447, 0.026408568024635315, -0.10353642702102661, -0.0058938623405992985, 0.04445181041955948, 0.06343144923448563, 0.13809265196323395, 0.14081895351409912, 0.16792798042297363, 0.10570260882377625, 0.05271250009536743, 0.03792665898799896, -0.006220495793968439, -0.02930482290685177, -0.0365111380815506, -0.030427780002355576, 0.00844611506909132, 0.07442677021026611, 0.09633902460336685, 0.12840884923934937, 0.07053389400243759, 0.036250099539756775, 0.06447102874517441, 0.021585455164313316, 0.03659961000084877, 0.0990261510014534, 0.014638581313192844, 0.02293362095952034, 0.00816077645868063, -0.049634892493486404, -0.07188177108764648, -0.0471252016723156, 0.06977228820323944, 0.09851828217506409, 0.05999436974525452, 0.12136297672986984, 0.08672821521759033, 0.0969386100769043, 0.04464932903647423, 0.014606026001274586, -0.010045554488897324, -0.005101163871586323, 0.022988636046648026, -0.04494841769337654, 0.0028568310663104057, 0.08604837208986282, 0.13359585404396057, 0.03167834132909775, 0.043306414037942886, 0.010042957030236721, 0.02398991398513317, 0.009731162339448929, -0.0028425296768546104, 0.018495645374059677, 0.02267676591873169, 0.04240840673446655, 0.017149709165096283, -0.06930657476186752, 0.01757550612092018, 0.0565946064889431, 0.08138041198253632, 0.05511360242962837, 0.07740388810634613, 0.11377168446779251, 0.059855904430150986, 0.03868642821907997, 0.0472797229886055, -0.017559729516506195, -0.008213356137275696, 0.0037020957097411156, -0.015672532841563225, -0.04864645004272461, 0.013541591353714466, 0.07559651881456375, 0.045391619205474854, -0.011839182116091251, 0.0058810291811823845, 0.015474642626941204, 0.059935107827186584, 0.006171440705657005, 0.09558825194835663, 0.11935991793870926, 0.1237800121307373, 0.04952342435717583, 0.09752275794744492, 0.018175898119807243, 0.003936297260224819, 0.12803946435451508, 0.06707851588726044, 0.1283239722251892, 0.03679835423827171, -0.011191023513674736, -0.07265914976596832, -0.09253998100757599, 0.010465264320373535, -0.008183437399566174, -0.009477955289185047, -0.021250059828162193, -0.01459231786429882, -0.02866133488714695, 0.011114140041172504, 0.011329863220453262, -0.038141053169965744, -0.0932086631655693, -0.08063392341136932, -0.048986032605171204, -0.003436438739299774, -0.007770877797156572, 0.07273995876312256, 0.081122986972332, 0.17770065367221832, 0.1516736000776291, 0.03950152173638344, 0.022697148844599724, 0.12505953013896942, 0.06908426433801651, 0.07885601371526718, 0.06275855749845505, -0.024615591391921043, -0.07340873032808304, -0.09709921479225159, -0.09403761476278305, -0.017378782853484154, -0.008416933938860893, -0.006509709171950817, 0.00914547685533762, -0.010907774791121483, -0.02303011529147625, -0.031195277348160744, -0.002335146302357316, -0.13427892327308655, -0.10967839509248734, -0.10173878818750381, 0.025201376527547836, 0.018258698284626007, -0.006336211692541838, -0.0163161288946867, 0.059340182691812515, 0.18483558297157288, 0.16227403283119202, 0.0675763189792633, 0.12419216334819794, 0.10061385482549667, 0.028903089463710785, -0.06358972936868668, -0.008924577385187149, -0.0486595556139946, -0.022282365709543228, -0.13167424499988556, -0.11201959103345871, -0.059093862771987915, 0.018361123278737068, -0.03148626163601875, 0.012050081975758076, -0.04476170614361763, -0.03883228078484535, -0.025038842111825943, -0.03897063806653023, -0.10295815020799637, -0.10172374546527863, -0.021844282746315002, 0.019744398072361946, -0.012955795973539352, 0.008561894297599792, -0.0008379560895264149, 0.13380952179431915, 0.251769483089447, 0.16444051265716553, 0.07752254605293274, 0.10320784151554108, 0.0548916719853878, -0.10451944917440414, -0.14843538403511047, -0.1088656634092331, -0.05231701582670212, -0.07736846059560776, -0.06644865870475769, -0.03960161283612251, -0.059405285865068436, 0.0027310175355523825, -0.02661871165037155, 0.006950512528419495, -0.03017096035182476, -0.0077562713995575905, 0.0036660199984908104, -0.02325708419084549, -0.0750150978565216, -0.028429780155420303, -0.03291388601064682, -0.026438526809215546, -0.030848786234855652, -0.11077362298965454, -0.0010832668049260974, 0.13456958532333374, 0.20178867876529694, 0.15277789533138275, 0.0698535218834877, -0.003429098753258586, -0.09219083935022354, -0.16699786484241486, -0.15734465420246124, -0.07100733369588852, -0.01447714027017355, -0.02663944475352764, -0.05190622806549072, -0.028643613681197166, -0.045819755643606186, -0.027762003242969513, 0.008951876312494278, -0.03478870913386345, -0.028210004791617393, 0.02633059024810791, -0.04152776300907135, -0.06384019553661346, -0.02445562183856964, -0.024209357798099518, -0.02926977537572384, -0.09867236018180847, -0.15781709551811218, -0.08511966466903687, -0.09035947173833847, -0.13406004011631012, 0.010250409133732319, 0.01734127104282379, -0.04886341467499733, -0.14912602305412292, -0.21907000243663788, -0.22429464757442474, -0.14938056468963623, -0.08771899342536926, -0.06112268194556236, -0.06865253299474716, -0.06396228075027466, -0.06278064101934433, -0.011372234672307968, 0.010985882952809334, 0.014586574397981167, 0.020967844873666763, -0.012853875756263733, -0.04200680926442146, 0.002706346567720175, -0.0444919615983963, -0.05842186138033867, 0.016497379168868065, 0.008644095622003078, -0.11946367472410202, -0.17369842529296875, -0.16938398778438568, -0.3661908209323883, -0.3076304495334625, -0.16809019446372986, -0.1516951024532318, -0.15263547003269196, -0.0734088197350502, -0.12117831408977509, -0.11532802879810333, -0.04755852371454239, -0.08249706774950027, -0.062159422785043716, -0.060929328203201294, -0.05179448425769806, -0.05456005036830902, -0.01921485736966133, 0.006365995854139328, -0.023536015301942825, -0.01026140246540308, 0.010244728066027164, 0.018704010173678398, 0.019111931324005127, -0.06422260403633118, -0.061567310243844986, -0.005602174438536167, 0.007552166935056448, -0.0510987713932991, -0.17193789780139923, -0.23706260323524475, -0.27113839983940125, -0.21937693655490875, -0.08571556955575943, -0.06415437161922455, -0.01976277492940426, -0.12422483414411545, -0.07954752445220947, -0.10630331933498383, -0.0388629250228405, -0.06251788139343262, -0.045387428253889084, -0.01685144007205963, -0.0004233431536704302, 0.017378708347678185, -0.001386294956319034, 0.017034919932484627, 0.023024318739771843, -0.0343874953687191, 0.020674489438533783, -0.007997526787221432, -0.011314787901937962, -0.04337681829929352, -0.009053776040673256, 0.020324135199189186, 0.07768253237009048, -0.0063775028102099895, -0.13037189841270447, -0.20886529982089996, -0.13557282090187073, -0.14326244592666626, -0.05491124838590622, -0.06128672882914543, -0.04416570067405701, -0.10160424560308456, -0.03011917695403099, -0.07091433554887772, -0.049611568450927734, 0.00876619666814804, 0.02003694698214531, 0.0022508299443870783, 0.0031969023402780294, -0.003936621826142073, -0.02716907486319542, -0.04868514463305473, -0.019637854769825935, 0.0023863937240093946, -0.020233124494552612, -0.004052533768117428, 0.007483611814677715, 0.0052917334251105785, -0.006802600808441639, -0.02299756184220314, 0.002844256116077304, -0.01952972821891308, -0.0808497816324234, -0.0612684041261673, 0.02403581328690052, -0.03359810262918472, -0.07337629795074463, -0.020431838929653168, -0.112470842897892, -0.072148896753788, -0.07528281211853027, -0.01049297396093607, 0.025042779743671417, 0.039976026862859726, 0.005493983160704374, -1.6781552403699607e-05, 0.011191830970346928, -0.03292091190814972, -0.015005487948656082, 0.01495105680078268, -0.017901921644806862, -0.025398142635822296, -0.014053977094590664, 0.02249954454600811, 0.01488613709807396, 0.024593859910964966, -0.03990880399942398, -0.01633298024535179, 0.01130591705441475, 0.08612041175365448, 0.003894771682098508, 0.04887033626437187, -0.006661529187113047, 0.011935895308852196, 0.07062027603387833, 0.01870872639119625, 0.01651996746659279, 0.012113559991121292, 0.046860259026288986, 0.05045550689101219, 0.0464269183576107, 0.03132253885269165, 0.031365782022476196, 0.003041621996089816, -0.026948295533657074, -0.012432054616510868, -0.02751639299094677, -0.01210472360253334, 0.005875414237380028, 0.0011900950921699405, 0.00848060380667448, -0.02539222501218319, -0.0017723236232995987, -0.017527533695101738, -0.030732205137610435, 0.034874409437179565, 0.03689027950167656, 0.0441315695643425, 0.07425623387098312, 0.06361037492752075, 0.0774548351764679, 0.05951739475131035, 0.03331141918897629, 0.04173291474580765, 0.048975612968206406, 0.047123584896326065, -0.003958608023822308, 0.00805849488824606, -0.00052058813162148, -0.008754851296544075, 0.042797256261110306, 0.032677602022886276, 0.018725978210568428, -0.011355308815836906, 0.0024727056734263897, -0.028972933068871498, -0.04405428096652031, -0.026453673839569092, -0.044543374329805374, -0.020669378340244293, 0.007534007076174021, -0.033530090004205704, -0.00811744388192892, 0.04802475869655609, 0.0395611897110939, 0.03554321452975273, 0.08284641057252884, 0.10300123691558838, 0.05901210755109787, 0.10840809345245361, 0.10993233323097229, 0.07822101563215256, 0.05212312936782837, 0.07758156955242157, 0.018091542646288872, 0.032773882150650024, 0.04398612678050995, -0.007694656495004892, 0.025847099721431732, -0.007670330815017223, 0.019101085141301155, -0.040901876986026764, -0.03405036777257919, -0.01703985594213009, -0.010003321804106236, -0.03357112407684326, -0.02006225846707821, -0.04026446118950844, -0.029907379299402237, 0.016710838302969933, -0.006794988643378019, -0.022639058530330658, 0.015670089051127434, 0.013354295864701271, -0.004394238814711571, 0.04586179926991463, 0.04447905719280243, 0.0015628911787644029, 0.020418157801032066, 0.039968252182006836, 0.024592746049165726, 0.0017188172787427902, 0.04202980175614357, 0.029646901413798332, -0.03341345116496086, -0.01211137231439352, -0.021118566393852234, 0.014487503096461296, -0.02113942988216877, 0.013515290804207325, -0.0018926718039438128, -0.0457480363547802, -0.024721834808588028, -0.016235455870628357, 0.007967722602188587, 0.0012442207662388682, 0.0016940918285399675, -0.01995520293712616, 0.0046066357754170895, 0.020708592608571053, 0.010359901934862137, -0.011187849566340446, -0.009362917393445969, -0.024362687021493912, 0.02026192471385002, 0.008664646185934544, -0.029591666534543037, -0.02070365473628044, -0.013513720594346523, -0.014124466106295586, -0.017032645642757416, 0.015241154469549656, -0.027867507189512253, 0.010908459313213825, 0.018868643790483475, -0.04331172630190849, -0.02391139604151249, 0.016965825110673904, -0.004633484873920679, 0.016392899677157402, 0.012087523005902767], [-0.03172193840146065, -0.006726331077516079, 0.011874498799443245, -0.010211734101176262, 0.0014894360210746527, -0.004635177552700043, 0.02218835987150669, 0.030283497646450996, -0.012451780959963799, 0.03567888215184212, -0.006172298453748226, -0.011564137414097786, -0.027481993660330772, 0.02239915542304516, -0.015652017667889595, 0.02948913536965847, -0.0053646145388484, 0.008452474139630795, 0.011486124247312546, 0.007383130490779877, 0.018291784450411797, 0.03305104002356529, -0.012171754613518715, 0.029576795175671577, -0.02300351671874523, 0.0228725653141737, 0.029663527384400368, -0.019519684836268425, 7.635707152076066e-05, 0.013177791610360146, -0.01677594520151615, -0.02071302942931652, -0.03303651884198189, -0.01379840262234211, -0.009012610651552677, -0.028115523979067802, 0.010822233743965626, -0.021265316754579544, -0.02899736724793911, -0.002536177169531584, 0.012601681984961033, 0.0040559181943535805, 0.025825178250670433, -0.0123212281614542, 0.011452619917690754, 0.000904749205801636, 0.01641828380525112, -0.006752707529813051, 0.020500486716628075, 0.023383384570479393, 0.03376343846321106, -0.01772416941821575, 0.014760689809918404, 0.006452271714806557, 0.033196933567523956, 0.028706232085824013, 0.00954139232635498, -0.010555794462561607, -0.01900399662554264, -0.018715085461735725, -0.0038504537660628557, 0.001414295518770814, -0.018479246646165848, -0.013987351208925247, -0.009581239894032478, 0.03224550560116768, 0.005079010967165232, 0.004595927428454161, 0.011761683970689774, 0.005403959657996893, -0.0046048094518482685, 0.028935372829437256, -5.417816282715648e-06, 0.032652728259563446, 0.02906644716858864, -0.01774211972951889, 0.03002665750682354, -0.00151179195381701, 0.009101071394979954, -0.03331496939063072, 0.01135064847767353, -0.00033478924888186157, 0.014047810807824135, -0.03166491165757179, -0.015381410717964172, -0.0017221607267856598, 0.006428174674510956, 0.034254852682352066, -0.028630046173930168, 0.003668729681521654, -0.0020816384349018335, -0.030889814719557762, 0.0014039453817531466, 0.018274256959557533, 0.024571605026721954, 0.006554370280355215, 0.03394743800163269, 0.008049183525145054, 0.0325559563934803, 0.00694174924865365, 0.029742293059825897, 0.02382080629467964, -0.0019454500870779157, -0.029145758599042892, -0.019903887063264847, -0.010650272481143475, -0.016934813931584358, -0.042161744087934494, 0.01057115476578474, 0.002953013638034463, -0.019299684092402458, 0.01569523848593235, -0.00953640602529049, -0.013115325942635536, 0.009795073419809341, -0.031249964609742165, 0.008347314782440662, -0.007708125282078981, 0.044490404427051544, 0.023669656366109848, 0.051677633076906204, 0.057025108486413956, 0.03899852931499481, 0.09628418833017349, 0.01172732189297676, 0.012199334800243378, -0.014201605692505836, 0.004927610978484154, -0.020039169117808342, 0.008205092512071133, -0.0008516725501976907, -0.03748718649148941, -0.04760044440627098, -0.026125682517886162, 0.00528274942189455, 0.0225069560110569, 0.022146092727780342, 0.013342445716261864, 0.009571356698870659, 0.008457448333501816, 0.01557503454387188, -0.007156326901167631, 0.006127220578491688, 0.026443280279636383, -0.02731531858444214, 0.015237752348184586, 0.03587241470813751, 0.04391162097454071, 0.028030700981616974, 0.011772546917200089, 0.03297392278909683, -0.02556574158370495, -0.03195476904511452, -0.025797592476010323, -0.011906996369361877, -0.029883835464715958, -0.030026966705918312, -0.08502642810344696, -0.045767705887556076, -0.03913882374763489, -0.031203482300043106, -0.005108026321977377, -0.017677567899227142, 0.024631189182400703, -0.0010077707702293992, -0.02084856480360031, -0.02011764422059059, 0.022200411185622215, -0.004490061663091183, 0.02825992926955223, -0.00023873569443821907, 0.028241099789738655, 0.0462312176823616, 0.046014390885829926, 0.04408244788646698, 0.06292293220758438, 0.044219110161066055, 0.07612574845552444, 0.05511118099093437, 0.0037413747049868107, -0.07085451483726501, -0.0771508738398552, -0.11122866719961166, -0.15300743281841278, -0.1615505963563919, -0.05811844766139984, -0.02184683457016945, 0.0035161313135176897, -0.022880682721734047, -0.007153554819524288, 0.0009501314489170909, -0.01728338934481144, 0.06316159665584564, 0.0031243718694895506, -0.016641447320580482, -0.02530919387936592, 0.013564994558691978, 0.013870762661099434, 0.016299773007631302, 0.03417482227087021, 0.06022387370467186, 0.0806950107216835, 0.09190881997346878, 0.09564006328582764, 0.0885966420173645, 0.11347424983978271, 0.1078062355518341, 0.03783213719725609, 0.01219762209802866, -0.0012852693907916546, 0.013696382753551006, -0.11330049484968185, -0.0896405279636383, -0.04504039138555527, 0.06005305051803589, 0.048130568116903305, 0.0684167891740799, 0.07624827325344086, 0.0703890472650528, 0.011237949132919312, -0.017729396000504494, 0.03503577783703804, 0.021014612168073654, -0.003858542535454035, 0.004162234254181385, 0.008954576216638088, -0.016138358041644096, 0.026572801172733307, 0.05773262679576874, 0.03729759156703949, 0.06129844859242439, 0.11075329035520554, 0.13138116896152496, 0.10966630280017853, 0.1471523642539978, 0.15645457804203033, 0.2228514701128006, 0.22568051517009735, 0.2423548698425293, 0.10992342978715897, 0.03547322377562523, 0.10406973212957382, 0.14607246220111847, 0.104366734623909, 0.10010010004043579, 0.09425345808267593, 0.0704786404967308, 0.027657579630613327, 0.022307753562927246, -0.0019135193433612585, 0.016097521409392357, 0.018184302374720573, -0.016288409009575844, -0.029830778017640114, 0.022946178913116455, 0.009347962215542793, 0.04280747100710869, 0.0717761293053627, 0.0612063854932785, 0.1724412888288498, 0.1622658371925354, 0.19316738843917847, 0.17582054436206818, 0.20823515951633453, 0.27496761083602905, 0.38287103176116943, 0.41247227787971497, 0.2970423400402069, 0.15271686017513275, 0.15953366458415985, 0.1055276095867157, 0.09412947297096252, 0.04821482300758362, 0.03756304457783699, 0.12118517607450485, 0.05645002797245979, 0.023594381287693977, 0.023758480325341225, 0.05259208381175995, -0.015171688981354237, -0.007893137633800507, 0.013688256964087486, 0.012714103795588017, 0.04714016616344452, 0.04633326083421707, 0.047123778611421585, 0.1054759994149208, 0.12290298938751221, 0.08974689990282059, 0.08666660636663437, 0.12049255520105362, 0.196221262216568, 0.18141427636146545, 0.409854531288147, 0.2661011815071106, 0.17263838648796082, 0.0032783758360892534, 0.08171688765287399, 0.13092124462127686, 0.07135158777236938, 0.06870148330926895, 0.06700299680233002, 0.04318062216043472, 0.03425576910376549, -0.0025411369279026985, 0.06135628744959831, 0.0012876689434051514, 0.00854873564094305, -0.026151636615395546, -0.028737390413880348, 0.010760425589978695, 0.03511869162321091, 0.01879427582025528, -0.04778795689344406, 0.017052963376045227, -0.04730674996972084, -0.03176836669445038, 0.026676535606384277, 0.014352653175592422, 0.02270503155887127, 0.0036481248680502176, -0.030741875991225243, -0.08894568681716919, -0.17430900037288666, -0.1883106231689453, 0.002530567115172744, 0.06712164729833603, 0.030756136402487755, -0.031109709292650223, -0.07569781690835953, -0.09256814420223236, -0.02165115252137184, 0.02763654850423336, 0.0666525736451149, 0.030624592676758766, -0.032675184309482574, -0.013398338109254837, 0.021656060591340065, 0.034520991146564484, -0.03953578323125839, -0.06409516930580139, -0.09815379232168198, -0.11618273705244064, -0.059976011514663696, -0.0688520222902298, -0.02971002273261547, -0.08257702738046646, -0.17972762882709503, -0.22581639885902405, -0.27654480934143066, -0.20079405605793, -0.2200099676847458, -0.19702717661857605, -0.030918028205633163, 0.046189844608306885, -0.07399451732635498, -0.10394632071256638, -0.152068093419075, -0.14873947203159332, -0.10137432813644409, -0.024505890905857086, -0.00996167492121458, -0.017731625586748123, -0.005797629710286856, -0.007866699248552322, -0.03157311677932739, 0.0014007665449753404, -0.060537189245224, -0.11825300753116608, -0.12001121789216995, -0.09190039336681366, -0.1204402968287468, -0.1552681028842926, -0.07753591239452362, -0.12612058222293854, -0.14879901707172394, -0.23974548280239105, -0.1991761028766632, -0.06860242038965225, -0.17126546800136566, -0.12656866014003754, 0.044087931513786316, 0.041156984865665436, -0.12717664241790771, -0.08657919615507126, -0.1724935919046402, -0.14758948981761932, -0.07368619740009308, 0.013505774550139904, 0.012457051314413548, -0.026984969154000282, -0.0026618381962180138, -0.025915881618857384, 0.00019384942424949259, 0.03507624566555023, -0.06278020888566971, -0.11222505569458008, -0.11172337085008621, -0.16202205419540405, -0.1551063358783722, -0.13755804300308228, -0.08432472497224808, -0.06834221631288528, -0.21247898042201996, -0.14162833988666534, -0.07057130336761475, -0.020799947902560234, 0.003985417541116476, -0.07869689911603928, 9.702227544039488e-06, -0.0316338837146759, -0.07535427063703537, -0.07139746099710464, -0.05127435922622681, -0.10128479450941086, -0.038636934012174606, 0.023155217990279198, 0.04231950640678406, -0.003213083604350686, 0.00644080201163888, -0.01679058186709881, -0.013036448508501053, -0.015313220210373402, -0.052496157586574554, -0.10797516256570816, -0.13591711223125458, -0.12042992562055588, -0.08953460305929184, -0.06216343492269516, 0.0003158437320962548, -0.061846908181905746, -0.041164129972457886, -0.007477893028408289, 0.03377791494131088, 0.027483517304062843, -0.04388057067990303, -0.08336936682462692, -0.15922598540782928, -0.08283466845750809, -0.013786179013550282, -0.022513188421726227, 0.04477107152342796, 0.03715447708964348, 0.03133907914161682, 0.05100413039326668, 0.024055005982518196, 0.018594861030578613, -0.02259944938123226, 0.007714288309216499, 0.00514250947162509, 0.031226808205246925, -0.03196117654442787, -0.06239612400531769, -0.14652279019355774, -0.10175429284572601, -0.07219625264406204, -0.030531372874975204, 0.028842484578490257, -0.04387257248163223, -0.07181836664676666, -0.01327492669224739, 0.06840170919895172, 0.0445234477519989, -0.011836172081530094, -0.05711018294095993, -0.14331017434597015, -0.12552112340927124, 0.0575055256485939, 0.04549497738480568, 0.09956052154302597, 0.016876351088285446, 0.0310664139688015, 0.05576341599225998, 0.05941971763968468, 0.04742233455181122, -0.019201520830392838, -0.029481520876288414, 0.003629347775131464, 0.03290029242634773, -0.0053138877265155315, -0.06607598066329956, -0.08836447447538376, -0.05770864337682724, -0.06728994101285934, -0.034044161438941956, -0.027851741760969162, -0.06977713108062744, -0.01777198165655136, -0.06173962354660034, 0.08885964751243591, 0.028694434091448784, -0.05399502441287041, -0.03514006361365318, -0.12068237364292145, -0.06834281980991364, 0.009326380677521229, 0.08961881697177887, 0.04597551003098488, 0.07650889456272125, 0.10315437614917755, 0.07330771535634995, -0.0012016001855954528, -0.0119710061699152, 0.012085814028978348, -0.02600087784230709, -0.00190820824354887, 0.009111425839364529, 0.016269976273179054, 0.012559850700199604, -0.03979475796222687, -0.09739822149276733, -0.08523436635732651, -0.061719801276922226, -0.038613319396972656, -0.07495632767677307, -0.10990748554468155, -0.026060529053211212, 0.045944616198539734, 0.010495210066437721, 0.0020596394315361977, 0.005858409218490124, -0.0009641952929086983, -0.013378096744418144, -0.005351573694497347, 0.05627378448843956, 0.04950730875134468, 0.11587604135274887, 0.09757881611585617, 0.03372916951775551, 0.04125165194272995, 0.017739539965987206, 0.01757209002971649, 0.03384752944111824, -0.001311419764533639, -0.006195559166371822, 0.02684030495584011, 0.03041755221784115, 0.01731627807021141, 0.04035278409719467, 0.023140965029597282, 0.03556180000305176, 0.0057305763475596905, -0.040782321244478226, -0.07273100316524506, 0.0013628280721604824, 0.07764509320259094, 0.02398274838924408, 0.0540655218064785, 0.0784674733877182, 0.04486526921391487, -0.003804880427196622, -0.0021380640100687742, 0.04888250306248665, 0.04765322431921959, 0.04437142238020897, 0.04338239133358002, 0.004583008121699095, 0.04206898435950279, 0.013202428817749023, -0.00801254902034998, -0.0045156171545386314, -0.00033073703525587916, -0.016252834349870682, 0.03710201755166054, 0.03152259811758995, 0.027381861582398415, 0.06049121916294098, 0.051458120346069336, 0.06119757518172264, 0.06823629140853882, -0.02842695266008377, 0.0001623795833438635, 0.057695671916007996, 0.055040713399648666, 0.0814913734793663, 0.10245011001825333, 0.082451231777668, 0.03694764897227287, 0.11638398468494415, 0.07696957141160965, -0.017666874453425407, -0.009290921501815319, -0.012176751159131527, 0.0036587826907634735, -0.0013284113956615329, 0.01201081182807684, 0.021303050220012665, 0.004870512522757053, 0.0005034052883274853, -0.026809394359588623, 0.03377360850572586, 0.006076842546463013, 0.033168546855449677, 0.039617571979761124, 0.020485490560531616, 0.021065350621938705, 0.027744455263018608, 0.040853798389434814, 0.003276874776929617, 0.037136223167181015, 0.10576790571212769, 0.09138578921556473, 0.11117003858089447, 0.1266343593597412, 0.07210177928209305, 0.0405406653881073, 0.1379711925983429, 0.029140805825591087, -0.006303086411207914, 0.004059415776282549, 0.026692574843764305, -0.006245685741305351, -0.01856430433690548, -0.026797223836183548, 0.020103001967072487, -0.026872096583247185, 0.006301870569586754, -0.016439618542790413, -0.0035691624507308006, -0.013937626965343952, 0.015288366936147213, 0.06377634406089783, 0.07674803584814072, 0.07973146438598633, 0.04497871175408363, 0.01924804225564003, 0.020771916955709457, -0.0048203119076788425, 0.024578910320997238, -0.06014007329940796, 0.041131146252155304, 0.1064089834690094, 0.0901147648692131, 0.15396496653556824, 0.10938366502523422, 0.04255546256899834, -0.04169242084026337, -0.05302257835865021, -0.054905086755752563, 0.00223286054097116, -0.00707467645406723, 0.02448931150138378, 0.008012652397155762, 0.02836797386407852, -0.02477000094950199, -0.009211566299200058, -0.0295808557420969, -0.00018107668438460678, 0.0715901255607605, 0.04840296134352684, 0.09016018360853195, 0.06947198510169983, 0.04679359868168831, 0.0491352453827858, 0.06631016731262207, 0.06147267669439316, 0.05474049970507622, -0.012916035018861294, 0.01023833267390728, 0.1176157295703888, 0.11440502107143402, 0.14350281655788422, 0.10804332047700882, -0.01703263446688652, -0.08355632424354553, -0.048968929797410965, -0.02426116354763508, 0.013490431942045689, 0.00917067751288414, 0.02108522690832615, -0.021861521527171135, 0.033168211579322815, 0.01976730115711689, -0.03396319970488548, -0.011545302346348763, -0.015954742208123207, 0.030417468398809433, 0.013207921758294106, 0.1045067235827446, 0.09891144186258316, 0.008231119252741337, 0.034565094858407974, 0.08070200681686401, 0.04004060849547386, 0.07583152502775192, 0.09878458827733994, 0.10766632109880447, 0.08630301058292389, 0.09670703858137131, 0.0968213677406311, 0.06458079069852829, -0.016831161454319954, -0.05458464100956917, -0.033665385097265244, -0.009795693680644035, 0.0034083458594977856, 0.01222942303866148, 0.018499592319130898, 0.012336510233581066, 0.03361988440155983, -0.012834277004003525, -0.011936044320464134, -0.00673142122104764, -0.016081001609563828, 0.01828240416944027, 0.019719384610652924, 0.0014852245803922415, 0.03402377665042877, 0.10961694270372391, 0.10156288743019104, 0.0725039467215538, 0.020209386944770813, 0.12937302887439728, 0.0456283800303936, 0.04863288626074791, 0.10625861585140228, 0.1167168840765953, 0.07645075023174286, 0.04531991854310036, -0.006365506444126368, -0.04710536450147629, -0.053752221167087555, 0.023133665323257446, -0.026712600141763687, -0.01149201299995184, 0.020636918023228645, -0.006215774919837713, 0.0015859463019296527, -0.010683273896574974, -0.013089006766676903, 0.017243849113583565, 0.005487395916134119, -0.012950772419571877, -0.025035616010427475, -0.012787826359272003, -0.01882365718483925, 0.011149609461426735, 0.003385651158168912, -0.041366685181856155, 0.006636531092226505, -0.013198268599808216, -0.030342718586325645, -0.0025672055780887604, 0.0022737099789083004, -0.02769182249903679, 0.002558393171057105, 0.04784403368830681, 0.037551406770944595, 0.005229210015386343, 0.009883045218884945, 0.0015604429645463824, 0.0019697840325534344, -0.01443103514611721, 0.025532735511660576, -0.004553067497909069, -0.028456998988986015, -0.01499870978295803, -0.0040185581892728806, 0.018021995201706886, 0.023332631215453148, -0.009007351472973824, -0.00875280611217022, 0.030123591423034668, -0.019251860678195953, 0.0045351190492510796, 0.019162727519869804, 0.03593370318412781, -0.025472398847341537, 0.023475175723433495, -0.010242908261716366, 0.012988081201910973, 0.021619856357574463, -0.022635115310549736, -0.017048966139554977, 0.008800696581602097, 0.02248573489487171, -0.0357121080160141, -0.01615375652909279, 0.031921811401844025, 0.008777548559010029, -0.010782817378640175, 0.023838510736823082, -0.02539774216711521, -0.0031342441216111183], [-0.004846211988478899, 0.009987836703658104, 0.02150561287999153, 0.035223338752985, 0.028808336704969406, 0.005558522883802652, 0.012518687173724174, -0.003469528630375862, 0.06146017089486122, 0.006925683002918959, 0.04575188085436821, 0.0054964045993983746, -0.001329811755567789, -0.0011780448257923126, 0.012111117132008076, 0.040168460458517075, 0.05398954823613167, 0.016749806702136993, 0.04399929568171501, 0.01372476015239954, 0.031137429177761078, 0.01727500557899475, 0.038613904267549515, 0.01584554836153984, 0.0031675954815000296, 0.024403490126132965, 0.01682419329881668, -0.005053054075688124, 0.05318406596779823, 0.045929159969091415, 0.06518520414829254, 0.06298051029443741, 0.019056137651205063, 0.057945024222135544, 0.025853276252746582, 0.053274523466825485, 0.06255213916301727, 0.04963256046175957, 0.03291326388716698, 0.05414319038391113, 0.04635388404130936, 0.038370970636606216, 0.011760390363633633, 0.04362009838223457, -0.0015430973144248128, 0.04488200694322586, 0.04255833104252815, 0.004400290083140135, 0.011363815516233444, 0.07125000655651093, 0.05756819620728493, -0.0014511439949274063, 0.0565485842525959, 0.05458151176571846, 0.014977915212512016, 0.014963572844862938, 0.04749368503689766, 0.03632231429219246, 0.021225830540060997, 0.06385122239589691, 0.05901171639561653, 0.02851785719394684, -0.0004364899650681764, 0.002750406740233302, 0.004993752110749483, -0.006073108408600092, 0.01369265466928482, -0.014329014346003532, -0.008844819851219654, 0.026697896420955658, 0.043879978358745575, 0.05154590308666229, 0.05426604673266411, 0.04445650801062584, 0.06444849818944931, 0.1002437099814415, 0.07029201090335846, 0.05608699470758438, 0.046879470348358154, 0.0341598279774189, 0.018768008798360825, 0.03957948833703995, 0.06433530151844025, 0.031733036041259766, -0.005643199663609266, 0.06237119808793068, 0.00900630559772253, 0.025799274444580078, 0.008649670518934727, -0.004171269945800304, 0.042241696268320084, -0.010306768119335175, 0.01707957312464714, -0.05343000218272209, -0.0698871910572052, -0.0910690426826477, -0.10516166687011719, -0.08444823324680328, -0.09462051838636398, -0.09069304913282394, -0.06994733959436417, -5.9934944147244096e-05, 0.03728057071566582, 0.05064947530627251, 0.030097609385848045, 0.09292630851268768, 0.0534684956073761, 0.055119480937719345, 0.015595762059092522, 0.03577988222241402, 0.03326905891299248, 0.05921240523457527, 0.007787676062434912, 0.051060792058706284, 0.03648151829838753, 0.010905666276812553, 0.006720947101712227, 0.04335009306669235, -0.02929864078760147, -0.03414280340075493, -0.05691465362906456, -0.08246587961912155, -0.18168257176876068, -0.20611758530139923, -0.24289226531982422, -0.17895959317684174, -0.1735946536064148, -0.16671721637248993, -0.07119263708591461, 0.044559579342603683, 0.012620249763131142, 0.0836782306432724, 0.15593524277210236, 0.14796563982963562, 0.14549772441387177, 0.09210125356912613, 0.07585880160331726, 0.011143870651721954, 0.048563968390226364, -0.003753649303689599, 0.04394758865237236, 0.062283169478178024, 0.00639186380431056, 0.0184781551361084, 0.032992277294397354, 0.028355693444609642, -0.044318269938230515, -0.08107097446918488, -0.141946941614151, -0.1598016321659088, -0.27763399481773376, -0.26211363077163696, -0.19738762080669403, -0.07728377729654312, 0.012707119807600975, -0.004878068808466196, -0.027881428599357605, 0.039735790342092514, 0.0466558001935482, 0.07372500002384186, 0.1628764569759369, 0.147624671459198, 0.11853622645139694, 0.11271151900291443, 0.06393484026193619, 0.038862697780132294, 0.048001404851675034, 0.05958225950598717, 0.004407451953738928, 0.029190659523010254, 0.033523380756378174, 0.03275630623102188, 0.026998860761523247, 0.013957562856376171, -0.0906219556927681, -0.1105353981256485, -0.17325377464294434, -0.23696403205394745, -0.3072587847709656, -0.22269009053707123, -0.10179203003644943, 0.004989075008779764, 0.1476297229528427, 0.11801857501268387, -0.05776368826627731, -0.03513118997216225, -0.012068578042089939, 0.01645166240632534, 0.0703333243727684, 0.09625376760959625, 0.11734957247972488, 0.18155810236930847, 0.12535764276981354, 0.08809466660022736, 0.028779085725545883, 0.011437416076660156, 0.039399463683366776, 0.048396505415439606, 0.044903308153152466, 0.04441892355680466, -0.023790093138813972, -0.06149931997060776, -0.11035964637994766, -0.13367341458797455, -0.2334112524986267, -0.20473633706569672, -0.21024301648139954, -0.08417895436286926, 0.06289516389369965, 0.13308919966220856, 0.2078685313463211, 0.09273257851600647, -0.10823775082826614, -0.09107786417007446, -0.023122640326619148, -0.03021388128399849, 0.010509006679058075, 0.07996536046266556, 0.07928472757339478, 0.12627317011356354, 0.10434571653604507, 0.04262975603342056, 0.025742031633853912, 0.043879732489585876, 0.050460342317819595, 0.019483845680952072, 0.017810970544815063, 0.02777674049139023, -0.011164525523781776, -0.033114369958639145, -0.08164010941982269, -0.1367916315793991, -0.20362135767936707, -0.20361031591892242, -0.21478627622127533, -0.027353867888450623, 0.17604178190231323, 0.33003872632980347, 0.2036399245262146, 0.0008569984347559512, -0.14075806736946106, -0.07708025723695755, -0.04518245533108711, -0.06178219988942146, -0.06820478290319443, 0.008849232457578182, 0.06840039044618607, 0.05895902216434479, 0.07167309522628784, 0.05384206026792526, 0.03311990946531296, 0.04254693165421486, 0.02705627866089344, 0.05785403773188591, 0.04615933448076248, -0.01143606472760439, -0.049857247620821, -0.016579873859882355, -0.05338767543435097, -0.11125410348176956, -0.1504904180765152, -0.18718935549259186, -0.21693412959575653, -0.011297588236629963, 0.1576424390077591, 0.2685020864009857, 0.13047869503498077, 0.022423475980758667, -0.06200549378991127, -0.1609974205493927, -0.06239822134375572, -0.13224118947982788, -0.17425982654094696, -0.05273131653666496, -0.06578320264816284, -0.027939923107624054, 0.027409065514802933, 0.03929990902543068, 0.03567950800061226, -0.0008767663384787738, 0.056687094271183014, 0.05324817821383476, 0.01538003794848919, -0.0031213380862027407, -0.03876832500100136, -0.06931577622890472, -0.09441473335027695, -0.12643566727638245, -0.14418193697929382, -0.16631865501403809, -0.1233820989727974, -0.02725902944803238, 0.21935656666755676, 0.23355083167552948, 0.11496394872665405, -0.022358302026987076, -0.1972440779209137, -0.21415884792804718, -0.16475185751914978, -0.18280623853206635, -0.19728431105613708, -0.13304680585861206, -0.10358788073062897, -0.03688793629407883, 0.013739818707108498, 0.04073631390929222, 0.03971278294920921, 0.05348556861281395, 0.03705288842320442, 0.04162042587995529, 0.048163317143917084, -0.007920502685010433, -0.024942679330706596, -0.049911655485630035, -0.052541229873895645, -0.07622990757226944, -0.19852352142333984, -0.11177784949541092, 0.013966891914606094, 0.11146382987499237, 0.2945035696029663, 0.1956268548965454, 0.05715353041887283, -0.044312041252851486, -0.1917935460805893, -0.23591870069503784, -0.1955593228340149, -0.16059750318527222, -0.20629189908504486, -0.14399299025535583, -0.10684183984994888, -0.030853508040308952, -0.030214719474315643, -0.010424409061670303, 0.04205392673611641, 0.025602325797080994, 0.04093506559729576, 0.025576138868927956, 0.0012904951581731439, 0.01791689358651638, -0.010651727207005024, -0.015152876265347004, -0.01742459088563919, -0.04709642753005028, -0.09863481670618057, -0.08768205344676971, 0.048578228801488876, 0.23220427334308624, 0.34205392003059387, 0.31280359625816345, 0.13272103667259216, -0.027862492948770523, -0.09772518277168274, -0.12440915405750275, -0.12496982514858246, -0.19294413924217224, -0.10511570423841476, -0.0603853277862072, -0.09031444787979126, -0.05084991827607155, -0.061391234397888184, -0.0013977796770632267, -0.016921380534768105, 0.010878857225179672, 0.023352377116680145, -0.004130587913095951, 0.04789348691701889, 0.01430501602590084, -0.019391648471355438, -0.020828133448958397, -0.020038150250911713, -0.021246982738375664, -0.07551537454128265, -0.002246056217700243, 0.07039108127355576, 0.21151700615882874, 0.237055242061615, 0.19533132016658783, 0.20148952305316925, 0.07153453677892685, -0.03632834553718567, -0.021336209028959274, -0.10305171459913254, -0.07978232204914093, 0.0010268929181620479, -0.01567462459206581, -0.05952528119087219, -0.0786278173327446, -0.05409378185868263, -0.0355529747903347, 0.03661004826426506, 0.0002484183060005307, -0.0018931839149445295, 0.03361179679632187, 0.0586630254983902, 0.04449058324098587, 0.012845126911997795, -0.012422655709087849, -0.0545734278857708, -0.03365261107683182, -0.008360949344933033, 0.007453566417098045, 0.06053777039051056, 0.08222834020853043, 0.1201205924153328, 0.08761736005544662, 0.1279061883687973, 0.0018835189985111356, 0.014320988208055496, -0.039141181856393814, -0.06781178712844849, -0.02693290263414383, -0.018176468089222908, -0.06283888220787048, -0.042037419974803925, -0.0985763892531395, -0.027767295017838478, -0.011571708135306835, 0.017256947234272957, 0.04937728866934776, 0.03466763347387314, 0.01168475765734911, 0.032939132302999496, 0.04484644904732704, -0.008919655345380306, 0.034038566052913666, -0.052569687366485596, -0.0023984124418348074, 0.05412600189447403, 0.018950657919049263, 0.008536946959793568, -0.0255068801343441, 0.04251687601208687, 0.04100378230214119, 0.1772855669260025, -0.006870967801660299, -0.04420755058526993, -0.019093206152319908, -0.03869510814547539, -0.031147951260209084, -0.03329284489154816, -0.06860463321208954, -0.09307753294706345, -0.037578925490379333, -0.023051172494888306, 0.0011327601969242096, 0.01686166413128376, 0.04576532542705536, 0.059529468417167664, 0.001517525059171021, 0.05474349483847618, -0.016661401838064194, -0.024537047371268272, 0.036900438368320465, -0.014294235967099667, -0.01513071171939373, -0.020925967022776604, -0.008803228847682476, 0.0054158358834683895, 0.001050181221216917, -0.004519560839980841, 0.04691295325756073, 0.1651846319437027, 0.07154010236263275, -0.03519819676876068, -0.04511898383498192, 0.0037507638335227966, -0.013069136999547482, -0.01043392438441515, -0.027180572971701622, -0.0837671160697937, -0.05213503912091255, -0.021895846351981163, -0.01838919334113598, 0.015633709728717804, 0.016693610697984695, -0.005866797175258398, 0.05888522416353226, 0.053390465676784515, 0.004544650670140982, -0.02906477265059948, -0.00485859252512455, -0.020205924287438393, -0.0025151704903692007, 0.024389199912548065, 0.0002482291019987315, 0.04900944232940674, 0.07262998074293137, 0.04563860222697258, 0.0644030049443245, 0.18119703233242035, 0.0009283682447858155, -0.09288831055164337, -0.07386603206396103, 0.012851531617343426, 0.005635455250740051, -0.047801364213228226, -0.08806002140045166, -0.09563571959733963, -0.0618908628821373, -0.031006425619125366, -0.03952891007065773, 0.01422161515802145, 0.02939477562904358, 0.021748799830675125, 0.021802043542265892, 0.042103689163923264, 0.014752806164324284, 0.01706068590283394, -0.008293196558952332, 0.02617914229631424, 0.03622910752892494, -0.0467873215675354, -0.026052184402942657, -0.04182954877614975, 0.01283341646194458, 0.12793508172035217, 0.07457496970891953, 0.09304298460483551, -0.021594179794192314, -0.08057906478643417, 0.010810562409460545, 0.03557301685214043, 0.020792370662093163, -0.05510961636900902, -0.15396437048912048, -0.17919737100601196, -0.12592406570911407, -0.06125573813915253, -0.007941490039229393, 0.014903581701219082, 0.016876840963959694, 0.01562780886888504, -0.005183341447263956, 0.044026318937540054, -0.0024464710149914026, -0.05223542079329491, -0.039012275636196136, -0.0001633856154512614, -0.008905485272407532, -0.04565522447228432, -0.020489167422056198, -0.045914649963378906, 0.10493908077478409, 0.07835342735052109, 0.02954784967005253, 0.04172343388199806, 0.030965622514486313, 0.046526819467544556, -0.003435553517192602, 0.017674600705504417, -0.05555425211787224, -0.08067416399717331, -0.14417870342731476, -0.13579198718070984, -0.08932731300592422, -0.0005130170611664653, 0.017334597185254097, 0.05006898194551468, 0.052350979298353195, 0.024440262466669083, 0.011529797688126564, 0.031664010137319565, -0.03530336916446686, -0.02059098705649376, -0.04371427372097969, -0.004736904054880142, -0.0958813950419426, -0.03371408209204674, -0.07602719962596893, 0.023156587034463882, 0.1236896887421608, 0.07877663522958755, -0.0817456766963005, 0.014825492165982723, 0.05395200848579407, 0.03812737017869949, 0.00887116976082325, -0.04030561074614525, -0.038686107844114304, -0.08978846669197083, -0.15719443559646606, -0.12577767670154572, -0.05258084461092949, 0.012235408648848534, 0.025322970002889633, 0.05665106698870659, 0.026768114417791367, 0.014889111742377281, 0.038710661232471466, 0.018114961683750153, 0.021429017186164856, -0.0018347284058108926, -0.054691992700099945, -0.029488947242498398, -0.05195050314068794, -0.06120391562581062, -0.0698220282793045, 0.028093470260500908, 0.05709502846002579, 0.052654244005680084, 0.007255817297846079, 0.0460720956325531, 0.03681458532810211, -0.04376629739999771, 0.007373816333711147, 0.009475086815655231, -0.07226408272981644, -0.054655104875564575, -0.048134345561265945, -0.03225739672780037, -0.048675648868083954, 0.00552518991753459, 0.0050991494208574295, 0.04345385730266571, 0.06142054870724678, 0.008067000657320023, 0.04581144079566002, 0.02386162430047989, 0.005743750371038914, -0.021435607224702835, 0.0007037004688754678, -0.06085389479994774, -0.07758671045303345, -0.0995282307267189, -0.0864352136850357, -0.030987979844212532, -0.0189356729388237, 0.07918177545070648, 0.09417890012264252, 0.1105399951338768, 0.08111073076725006, 0.10480416566133499, 0.11207595467567444, 0.028741268441081047, 0.041730690747499466, -0.014285688288509846, 0.01060306467115879, -0.01464867778122425, 0.016818856820464134, 0.05760607495903969, 0.05525309592485428, 0.05541315674781799, 0.006506763864308596, 0.024394553154706955, 0.05393151566386223, 0.03712986037135124, -0.0006773476488888264, 0.013356005772948265, -0.027007168158888817, -0.009614692069590092, -0.023762661963701248, -0.0225635077804327, 0.01660691387951374, 0.03680817782878876, 0.043095044791698456, 0.11654125154018402, 0.11206327378749847, 0.11011175811290741, 0.1356031894683838, 0.13500051200389862, 0.09148935973644257, 0.0636727437376976, 0.04468459263443947, 0.04814480245113373, -0.0022961427457630634, -0.028237752616405487, 0.03294585645198822, 0.03477701544761658, 0.025066502392292023, 0.023069286718964577, 0.05087856575846672, 0.02611168473958969, 0.027958929538726807, 0.04433519020676613, -0.002550656907260418, 0.01430036872625351, 0.008297362364828587, -0.0660029724240303, -0.052046243101358414, -0.04944325238466263, 0.0037916330620646477, -0.09109596908092499, -0.08800914883613586, -0.059139788150787354, 0.019546160474419594, 0.02396128885447979, 0.0008940864936448634, 0.040040142834186554, 0.003456628182902932, 0.048161569982767105, 0.04472121596336365, 0.026847422122955322, 0.03990166261792183, 0.006441652774810791, 0.020445531234145164, 0.018164020031690598, 0.03488105162978172, -0.00582636334002018, 0.01952999457716942, 0.029717762023210526, 0.006058892700821161, 0.03742249682545662, 0.03448551520705223, 0.048419542610645294, -0.0019899685867130756, -0.05438505485653877, -0.04665532335639, -0.032975342124700546, -0.08941303193569183, -0.11540189385414124, -0.04145711287856102, -0.10187225788831711, -0.08091793209314346, -0.051042165607213974, -0.08237621933221817, -0.08402137458324432, -0.06304346024990082, 0.007886740379035473, 0.02515505440533161, 0.018311871215701103, 0.03437156602740288, 0.06835959851741791, 0.016632746905088425, 0.03920844942331314, -1.1949086911045015e-05, 0.0063333348371088505, 0.022104203701019287, -0.0016168539877980947, 0.009202376939356327, 0.045100320130586624, 0.02270757593214512, -0.006224921438843012, -0.006228677928447723, 0.027425382286310196, 0.05376343056559563, 0.02328614518046379, -0.0031341244466602802, 0.0016276444075629115, 0.01893601007759571, 0.0052491738460958, -0.042030662298202515, -0.03763405606150627, -0.02997346594929695, -0.021089628338813782, 0.008142081089317799, 0.03460473194718361, -0.0031322643626481295, 0.03460465371608734, 0.002428697654977441, 0.017431631684303284, 0.04478513449430466, 0.022594239562749863, -0.002408622996881604, 0.020038597285747528, -5.721458001062274e-05, 0.006915336009114981, 0.010677075944840908, 0.012462515383958817, 0.028497494757175446, 0.03896985203027725, 0.057917721569538116, 0.04195207357406616, 0.030611585825681686, 0.05822140723466873, 0.055688876658678055, -0.0002910718903876841, 0.030806871131062508, -0.006335822865366936, 0.0048660640604794025, 0.054661400616168976, 0.008826635777950287, 0.049836017191410065, 0.019016483798623085, 0.014866265468299389, 0.06358632445335388, 0.009269553236663342, 0.025061428546905518, 0.02673189900815487, 0.06516095250844955, 0.05308573320508003, 0.04861205443739891, 0.040725383907556534, 0.05449661985039711], [0.03323519974946976, 0.03177770972251892, 0.04366371035575867, -0.010248416103422642, 0.028273742645978928, -0.014509143307805061, 0.01460627093911171, 0.04383926838636398, -0.0005428383592516184, 0.02490164339542389, -0.00029452855233103037, -0.0031082271598279476, 0.006933713331818581, -0.006838071625679731, -0.0020963677670806646, 0.017440415918827057, 0.012046553194522858, 0.04228683561086655, 0.0485972985625267, 0.010072063654661179, 0.007925446145236492, 0.048484817147254944, 0.03678521513938904, -0.010181697085499763, 0.035842642188072205, -0.015951531007885933, 0.009063622914254665, 0.0010815818095579743, 0.004514369182288647, 0.031524356454610825, 0.005430505611002445, -0.011397605761885643, -0.01260930672287941, 0.03631165623664856, 0.05172521620988846, -0.011195646598935127, 0.017588108777999878, 0.010843655094504356, 0.044446296989917755, -0.014660526067018509, 0.022174056619405746, 0.04311838746070862, -0.014021995477378368, 0.004768447019159794, -0.017479434609413147, -0.019381524994969368, 0.023742837831377983, 0.0301799476146698, 0.032233498990535736, 0.013310021720826626, -0.007667252793908119, 0.03435709327459335, 0.0329124890267849, 0.0412556529045105, -0.013061324134469032, -0.00228779180906713, 0.018142150714993477, -0.015442037023603916, 0.03360925242304802, 0.03549182415008545, 0.013103264383971691, 0.035394035279750824, 0.010873855091631413, 0.01389886811375618, 0.012842989526689053, 0.03417018800973892, 0.011338049545884132, 0.033917613327503204, 0.03328986465930939, 0.00641509797424078, 0.03967413678765297, 0.03908438980579376, 0.052788056433200836, -0.014480646699666977, 0.006969444919377565, 0.0006689111469313502, 0.013047317042946815, 0.02889244444668293, 0.0017550260527059436, -0.0008057728409767151, 0.04396607726812363, 0.014399118721485138, 0.02711578458547592, 0.012813838198781013, 0.0016197382938116789, 0.03794415295124054, 0.012218608520925045, -0.01763138733804226, 0.03166510909795761, 0.053795695304870605, 0.0029470741283148527, 0.03699222579598427, 0.033194687217473984, 0.02846069633960724, -0.009659981355071068, 0.01623092219233513, 0.017861686646938324, 0.04364367574453354, 0.03256729990243912, 0.11408703774213791, 0.0486937090754509, 0.0071942126378417015, -0.0213893111795187, -0.02907979115843773, -0.03175434097647667, 0.007191558834165335, 0.02244705520570278, 0.06080140173435211, 0.00535700935870409, 0.037236761301755905, 0.03303731977939606, 0.010011939331889153, -0.005472895689308643, 0.03657335042953491, 0.03661700338125229, 0.019016575068235397, 0.0035644934978336096, 0.0022348458878695965, 0.015108602121472359, 0.024268435314297676, -0.01246755663305521, -0.0012787467567250133, -0.02936643734574318, -0.028192488476634026, 0.08651000261306763, 0.0714525431394577, 0.16335012018680573, 0.20391930639743805, 0.1313992589712143, 0.009563323110342026, -0.011319450102746487, -0.09160156548023224, -0.05621855705976486, -0.03496518358588219, -0.011885068379342556, -0.05514344945549965, -0.0005601681768894196, -0.019206013530492783, 0.0273820199072361, 0.02628614753484726, -0.01410440169274807, -0.015801336616277695, 0.046032294631004333, 0.04237353801727295, 0.033010125160217285, 0.048063214868307114, 0.024181755259633064, 0.0341096855700016, -0.03888510540127754, -0.053370505571365356, -0.1281512975692749, -0.13571341335773468, -0.011157849803566933, -0.006609596312046051, 0.2213873714208603, 0.3456866145133972, 0.2221967577934265, 0.16154062747955322, 0.0008033653721213341, -0.10190389305353165, -0.2059769183397293, -0.15092146396636963, -0.10685890167951584, -0.032758455723524094, 0.014716874808073044, -0.014985106885433197, 0.009750344790518284, 0.03416628763079643, 0.050017036497592926, 0.01618596911430359, 0.002906717825680971, 0.049916330724954605, 0.002763832686468959, 0.030217142775654793, 0.033017147332429886, -0.023918423801660538, -0.066248320043087, -0.07684090733528137, -0.04909796640276909, -0.09567274153232574, -0.08230485022068024, -0.0677054151892662, 0.04137611389160156, 0.2717434763908386, 0.48537692427635193, 0.381319522857666, 0.10874954611063004, -0.20483480393886566, -0.28344571590423584, -0.1985175907611847, -0.18113075196743011, -0.09982945770025253, -0.06326862424612045, -0.02740614488720894, -0.0015948183136060834, 0.009257200174033642, 0.011017655953764915, 0.03198966756463051, 0.041305024176836014, 0.025729192420840263, 0.06199182569980621, 0.04039913788437843, 0.01740460842847824, 0.014356672763824463, -0.027050074189901352, 0.008471710607409477, 0.013497765175998211, -0.140791118144989, -0.1643059104681015, -0.23871254920959473, -0.15780146420001984, 0.20178309082984924, 0.42920851707458496, 0.4196610450744629, 0.11264489591121674, -0.1398164927959442, -0.340998113155365, -0.28344717621803284, -0.20176486670970917, -0.1307470053434372, -0.06557032465934753, -0.024164102971553802, -0.009371613152325153, 0.0478900671005249, -0.01507713831961155, 0.028447838500142097, 0.00655685318633914, 0.022882746532559395, 0.07840867340564728, 0.033872488886117935, 0.04993046447634697, 0.04950915649533272, 0.033743664622306824, 0.0866696834564209, 0.004703233949840069, -0.18832525610923767, -0.2870151698589325, -0.2907998859882355, -0.20813025534152985, 0.21190708875656128, 0.4909013509750366, 0.41527286171913147, 0.06201843172311783, -0.15874339640140533, -0.3397774398326874, -0.34728381037712097, -0.18025310337543488, -0.16079500317573547, -0.1056840643286705, -0.018566792830824852, 0.0297249723225832, 0.04109616577625275, -0.0037607396952807903, 0.047821350395679474, -0.007407963275909424, -0.018338575959205627, 0.053827524185180664, 0.04035452380776405, 0.08217894285917282, 0.012257394380867481, -0.015778467059135437, -0.005953838117420673, -0.07756563276052475, -0.201798215508461, -0.27812907099723816, -0.2136608213186264, -0.08816121518611908, 0.49339771270751953, 0.605512261390686, 0.38161295652389526, 0.032626111060380936, -0.20341135561466217, -0.3424670100212097, -0.2762700319290161, -0.20726396143436432, -0.12802381813526154, -0.07251313328742981, -0.019531236961483955, -0.0005415144260041416, 0.014055405743420124, 0.030405674129724503, 0.012731424532830715, 0.0334487184882164, 0.004453257191926241, 0.011259985156357288, -0.032951220870018005, -0.013987625017762184, -0.0026468525175005198, -0.09725052118301392, -0.07314640283584595, -0.10987644642591476, -0.09496058523654938, -0.17800095677375793, -0.10310376435518265, 0.1923418641090393, 0.5702077746391296, 0.5868279933929443, 0.2965408265590668, -0.16043388843536377, -0.28482744097709656, -0.2840895354747772, -0.16934970021247864, -0.09077051281929016, -0.07607797533273697, -0.09878838062286377, -0.02107715792953968, 0.02282165363430977, 0.007173819933086634, 0.03949412703514099, -0.008333347737789154, 0.04176345840096474, 0.013677231967449188, 0.01766067184507847, -0.06131302937865257, -0.0490046851336956, -0.025656187906861305, -0.05877211317420006, -0.0010722446022555232, 0.037567850202322006, -0.03655276447534561, -0.04929521307349205, 0.05628648400306702, 0.33217552304267883, 0.4555668234825134, 0.22499218583106995, -0.0829831212759018, -0.32700327038764954, -0.29903391003608704, -0.17302240431308746, -0.068463996052742, -0.0019022892229259014, -0.02056024596095085, -0.038161519914865494, -0.011086195707321167, 0.04890884831547737, 0.03920705243945122, 0.02017693966627121, 0.04648835211992264, 0.04354498162865639, 0.01224840059876442, -0.03199179098010063, -0.027518952265381813, -0.051896706223487854, -0.0020058408845216036, 0.012078146450221539, 0.0719599798321724, 0.07707760483026505, 0.02711179107427597, 0.0043775723315775394, 0.11352977901697159, 0.17335207760334015, 0.1470990926027298, 0.04632425680756569, -0.23059895634651184, -0.30546683073043823, -0.2096724957227707, -0.08033290505409241, -0.002537956228479743, 0.05362952873110771, 0.08352956920862198, 0.09100326150655746, 0.03786524757742882, 0.04566458240151405, 0.04582928493618965, -0.005727589130401611, -0.009733944199979305, 0.015108191408216953, -0.0004177675873506814, -0.040444716811180115, -0.03847450017929077, -0.028335271403193474, -0.04929111525416374, 0.05616544187068939, 0.11163651198148727, 0.07232439517974854, -0.03482291102409363, -0.039608169347047806, -0.02941449172794819, 0.06800149381160736, 0.0752343088388443, 0.09363822638988495, -0.022483495995402336, -0.1298154592514038, -0.1175847202539444, 0.020413603633642197, 0.03232242166996002, 0.01795649155974388, 0.05586104840040207, 0.011448719538748264, 0.025263890624046326, 0.05316445603966713, 0.01820353977382183, 0.015703586861491203, -0.0018960717134177685, 0.03463592752814293, -0.012603074312210083, -0.02369566261768341, -0.0025662158150225878, -0.08949693292379379, -0.02104833535850048, 0.04407000541687012, 0.08815346658229828, -0.03717759624123573, -0.04764183983206749, 0.006934158504009247, 0.01949211023747921, 0.04252273961901665, 0.005456136539578438, 0.025816133245825768, -0.0333741195499897, -0.08162621408700943, 0.026937443763017654, -0.015945259481668472, 0.0868799015879631, 0.05603517219424248, 0.0445040725171566, 0.018135476857423782, 0.042568549513816833, 0.04525753855705261, 0.04237675294280052, -0.006776639726012945, 0.010169319808483124, -0.00833996944129467, -0.007101791445165873, -0.002180530922487378, -0.026552995666861534, -0.05911298096179962, 0.013417026959359646, 0.030532969161868095, 0.05931118130683899, -0.04618481546640396, 0.025430357083678246, 0.04021811857819557, 0.010878156870603561, 0.016697214916348457, 0.05453069508075714, 0.0963064432144165, -0.03545886650681496, -0.026025624945759773, -0.010551370680332184, -0.004053723532706499, 0.03778534755110741, 0.07765800505876541, 0.05035945028066635, 0.026414375752210617, 0.004007494077086449, 0.05649816617369652, 0.03219911828637123, -0.015941770747303963, 0.043652504682540894, 0.027855072170495987, 0.03351869434118271, -0.0032750593964010477, -0.047846972942352295, -0.04127413406968117, 0.0036628630477935076, 0.002756501315161586, 0.10244311392307281, 0.03700529411435127, 0.0705917626619339, 0.024858305230736732, 0.016321050003170967, 0.0028995107859373093, -0.06977347284555435, 0.004099722485989332, -0.021317021921277046, 0.057605765759944916, 0.08388543874025345, 0.047610070556402206, 0.04962463304400444, 0.061434194445610046, 0.04551934823393822, 0.029609231278300285, 0.02268219366669655, 0.04658077657222748, 0.005921467673033476, -0.008064881898462772, 0.03271228075027466, 0.03204309195280075, -0.02504805289208889, -0.03140313923358917, -0.06256541609764099, -0.05192875489592552, -0.03282574564218521, -0.04598827287554741, -0.02728263847529888, -0.032235030084848404, 0.0066885328851640224, 0.021264275535941124, 0.09293641149997711, -0.05233032628893852, -0.08888563513755798, 0.03294594585895538, -0.0014466970460489392, 0.04556294158101082, 0.060060303658246994, -0.008426625281572342, 0.008554165251553059, 0.00720812426880002, 0.017852935940027237, 0.04553068056702614, 0.03831770643591881, 0.007928183302283287, -0.00024570967070758343, 0.016398459672927856, 0.04578950256109238, 0.010911082848906517, -0.006507928483188152, -0.06035434827208519, -0.06939706951379776, -0.035339634865522385, -0.08047250658273697, -0.07751400768756866, -0.022579103708267212, -0.05009043216705322, -0.02287592738866806, 0.012862383387982845, 0.050934236496686935, -0.14525766670703888, -0.11882176250219345, -0.01575639098882675, 0.06502532958984375, 0.048154693096876144, 0.036206964403390884, -0.035803187638521194, -0.02667304314672947, -0.009061943739652634, 0.021839642897248268, -0.027424616739153862, 0.02988707460463047, 0.04938681423664093, 0.026421237736940384, 0.04039662331342697, -0.0030711714643985033, -0.014761512167751789, 0.02179546281695366, -0.006098936311900616, -0.03794566169381142, -0.09781051427125931, -0.009550155140459538, -0.09524588286876678, -0.024740446358919144, -0.029637577012181282, -0.14461162686347961, -0.12883922457695007, -0.06562494486570358, -0.08133649080991745, -0.07054627686738968, 0.04627062380313873, 0.0419524721801281, 0.0684100016951561, 0.0345458947122097, 0.022554537281394005, -0.03798430413007736, -0.06859984248876572, -0.07677114009857178, -0.02887127175927162, 0.03741391748189926, -0.011485278606414795, 0.011297617107629776, 0.023489296436309814, -0.006231976207345724, -0.007320967502892017, 0.02427985705435276, -0.054490696638822556, -0.12023546546697617, -0.05543679744005203, 0.05560965836048126, -0.047488097101449966, 0.04497488960623741, -0.02373700588941574, 0.00407389784231782, -0.08268780261278152, -0.06860455870628357, -0.06175128370523453, -0.08075270801782608, 0.013079184107482433, 0.041201598942279816, 0.09749482572078705, 0.044255662709474564, 0.0576583556830883, -0.0035848012194037437, -0.05312593653798103, -0.08213547617197037, 0.010449356399476528, -0.008829092606902122, 0.02277958393096924, -0.015510150231420994, 0.030206581577658653, 0.04518204927444458, -0.006104287691414356, 0.008091351948678493, 0.010832023806869984, -0.05504724755883217, -0.06695811450481415, 0.002436894690617919, 0.05229172855615616, -0.0383552722632885, -0.020093081519007683, -0.08678275346755981, -0.07481393963098526, -0.04411064460873604, -0.0752805769443512, -0.022907676175236702, -0.025087721645832062, 0.06336896121501923, 0.11517753452062607, -0.005617119371891022, -0.06322520226240158, -0.061261508613824844, -0.0408446304500103, -0.043065957725048065, 0.017886828631162643, -0.0149298757314682, 0.04356929287314415, -0.009536977857351303, 0.004102203994989395, -0.005464380141347647, 0.00274947308935225, 0.026045413687825203, -0.009586326777935028, 0.022892875596880913, -0.03850458934903145, -0.061600539833307266, -0.03132668510079384, 0.0023486032150685787, 0.01559967827051878, -0.06420713663101196, -0.11482813209295273, -0.049447737634181976, -0.028806399554014206, -0.06908564269542694, -0.11081220954656601, 0.025776619091629982, 0.03791191428899765, 0.043848033994436264, -0.03478100150823593, 0.01638411171734333, -0.023616848513484, -0.012304759584367275, -0.018804268911480904, 0.01784464530646801, 0.050314679741859436, 0.00516083836555481, -0.016996685415506363, -0.01611260697245598, 0.003628052771091461, 0.02159825526177883, 0.003770578885450959, 0.030477670952677727, -0.009685860015451908, 0.0012621574569493532, 0.022668585181236267, 0.04367920756340027, 0.10219075530767441, 0.07245662063360214, 0.03926412761211395, 0.018664525821805, -0.010549989528954029, -0.06715176999568939, -0.08137356489896774, 0.026327265426516533, 0.08227845281362534, 0.007815339602530003, 0.04539584368467331, -0.03359216824173927, -0.046830497682094574, 0.014276563189923763, -0.020184095948934555, 0.03731587156653404, -0.016665197908878326, -0.010975155979394913, -0.012299317866563797, 0.006034833379089832, 0.028321214020252228, 0.013554529286921024, 0.03344619646668434, 0.034937139600515366, 0.015450670383870602, 0.06560100615024567, 0.034443117678165436, 0.06320993602275848, 0.03430270031094551, 0.042020801454782486, 0.001049500540830195, -0.009361492469906807, -0.04278545454144478, -0.08586431294679642, -0.0063676657155156136, -0.0072237057611346245, 0.05231383815407753, 0.045379579067230225, 0.012470321729779243, 0.005063330288976431, 0.01602005772292614, -0.022437645122408867, 0.005323371384292841, -0.012293577194213867, 0.038813430815935135, -0.014932443387806416, 0.039964430034160614, 0.023159682750701904, 0.026192426681518555, 0.0029698917642235756, -0.013128280639648438, -0.002504193689674139, 0.004332949873059988, 0.037861526012420654, 0.07320617139339447, 0.06835827976465225, 0.04070934280753136, 0.0208231583237648, -0.04161648452281952, -0.03955996781587601, -0.013509024865925312, -0.0867529958486557, -0.08680322766304016, -0.09237724542617798, -0.051236558705568314, 0.00781613402068615, -0.004380062688142061, -0.01543098408728838, 0.007533957250416279, 0.04052155464887619, 0.03393825143575668, 0.01639639213681221, 0.01732509769499302, -0.01713309809565544, 0.017235228791832924, 0.018912244588136673, 0.03919804096221924, 0.000875484780408442, 0.026071695610880852, 0.01180239301174879, 0.04419269412755966, 0.01702522672712803, 0.006713613402098417, -0.02341310679912567, 0.02477714791893959, -0.012032984755933285, -0.005147592164576054, -0.04262147843837738, -0.07616438716650009, -0.005868837703019381, -0.0133658517152071, -0.041828472167253494, 0.006491567008197308, -0.0004888012772426009, -0.03597906976938248, 0.02124735340476036, 0.020429527387022972, 0.032122693955898285, -0.014851996675133705, 0.02087613195180893, 0.02619815617799759, 0.015742437914013863, 0.009899267926812172, -0.013315407559275627, 0.05096887797117233, 0.04743078351020813, 0.020182978361845016, 0.041551411151885986, 0.023134011775255203, 0.021877190098166466, 0.04438752681016922, 0.02405075915157795, 0.05114671587944031, 0.012560751289129257, -0.021854380145668983, 0.00952679943293333, 0.012795968912541866, 0.019313231110572815, 0.035130761563777924, 0.04067693278193474, 0.032072246074676514, 0.04442208632826805, -0.015075957402586937, -0.008667146787047386, -0.011537201702594757, 0.01944582536816597, -0.0019325941102579236, -0.005816865712404251, 0.027537144720554352, 0.003552786074578762], [-0.02638791874051094, -0.0040792301297187805, -0.033727481961250305, 0.023557297885417938, 0.007028553634881973, -0.0022982917726039886, -0.0342586524784565, 0.01077776774764061, -0.006616119295358658, 0.014562100172042847, 0.0001438930630683899, 0.019625239074230194, -0.03188887983560562, 0.028159935027360916, 0.0260113924741745, 0.011735796928405762, 0.02833535149693489, 0.024020805954933167, -0.003414291888475418, 0.013206526637077332, 0.031136754900217056, 0.03070804849267006, 0.016174491494894028, 0.0280860997736454, 0.009988844394683838, 0.028667304664850235, 0.030427243560552597, 0.024519197642803192, 0.0057673826813697815, -0.007288727909326553, 0.03169037774205208, 0.015268292278051376, 0.004681792110204697, -0.03518815338611603, -0.032449740916490555, -0.025646880269050598, 0.022910263389348984, -0.018524600192904472, -0.028112605214118958, 0.02539297193288803, 0.022859379649162292, -0.01641298271715641, 0.0056066736578941345, -0.031205199658870697, 0.029064182192087173, 0.01471737027168274, 0.02906576171517372, 0.006730455905199051, -0.0354999378323555, 0.00010316446423530579, -0.02224539965391159, 0.007456157356500626, 0.010500714182853699, 0.03502374514937401, -0.009363358840346336, 0.02522096410393715, 0.008818238973617554, 0.03002448007464409, 0.013351593166589737, 0.02953546866774559, 0.0015458352863788605, 0.03479224815964699, -0.030125901103019714, -0.034340329468250275, -0.010230163112282753, 0.02070625126361847, 0.03233635053038597, -0.0346853993833065, 0.03126173093914986, 0.026509732007980347, 0.03333522006869316, 0.012822713702917099, -0.03463156521320343, 0.02119757980108261, -0.029621746391057968, -0.0015245452523231506, 0.014306806027889252, -0.0008639954030513763, -0.004438366740942001, -0.018116449937224388, -0.006041817367076874, 0.0052992068231105804, -0.030346961691975594, 0.016332067549228668, 0.03339105471968651, 0.0037954188883304596, 0.030754517763853073, -0.029242653399705887, 0.033516254276037216, -0.0019802451133728027, -0.02501465380191803, 0.021939877420663834, 0.028174545615911484, -0.034335535019636154, 0.016838308423757553, 0.032364506274461746, -0.00441519170999527, 0.022289108484983444, 0.009142555296421051, 0.02446587383747101, 0.03401002660393715, -0.009596416726708412, -0.006848612800240517, 0.006590280681848526, 0.020969655364751816, -0.03473332151770592, -0.034796856343746185, 0.014965876936912537, 0.009607143700122833, 0.026514839380979538, -0.021423950791358948, 0.0014110617339611053, 0.004533655941486359, 0.0015334077179431915, -0.016721049323678017, 0.024660110473632812, 0.015474118292331696, -0.0038015246391296387, 0.019493158906698227, -0.00636921264231205, 0.02223782241344452, -0.03246619924902916, -0.006999198347330093, 0.0016217045485973358, 0.02719646319746971, -0.02444673515856266, -0.03424089401960373, -0.033620432019233704, 0.027547333389520645, 0.017741624265909195, 0.028170626610517502, -0.005008988082408905, 0.02772131934762001, -0.017042765393853188, 0.005485910922288895, -0.026163414120674133, -0.0046776458621025085, 0.02446134015917778, -0.017906244844198227, -0.006376666948199272, 0.0015842355787754059, 0.035674553364515305, -0.005591444671154022, 0.0052000246942043304, 0.013008121401071548, -0.005615733563899994, 0.029006194323301315, -0.028050508350133896, -0.01430676318705082, -0.032073069363832474, -0.006156640127301216, -0.008068915456533432, 0.011932279914617538, 0.011048957705497742, 0.025860510766506195, 0.026372525840997696, -0.01008237712085247, 0.014473415911197662, -0.014903316274285316, 0.0220237597823143, -0.027456948533654213, 0.008982811123132706, -0.004377931356430054, 0.033172424882650375, -0.03439140319824219, -0.01781531795859337, -0.008677814155817032, 0.006458345800638199, 0.03466639295220375, 0.012494862079620361, -0.01811845973134041, -0.005689289420843124, 0.004891693592071533, -0.02452767826616764, 0.023331928998231888, 0.01758766546845436, -0.025284525007009506, -0.025559738278388977, 0.03532455489039421, -0.01477397046983242, -0.014696747064590454, -0.0008746981620788574, -0.00466514565050602, 0.023739028722047806, -0.028135016560554504, 0.027846094220876694, -0.011148296296596527, 0.00905180349946022, 0.010165784507989883, 0.031005490571260452, 0.02566434070467949, 0.01138465479016304, 0.01573852449655533, -0.019058316946029663, 0.031185347586870193, 0.006138816475868225, 0.023086141794919968, -0.01838443987071514, 0.0067661479115486145, 0.006395779550075531, -0.027680065482854843, -0.03279593214392662, 0.01980556920170784, -0.02882988192141056, -0.03334309533238411, 0.03312239423394203, -0.030111752450466156, 0.016681600362062454, -0.005776934325695038, -0.02489570342004299, -0.02497020922601223, 0.020794741809368134, -0.02339337207376957, -0.019578466191887856, 0.015343662351369858, -0.01778174377977848, -0.006947742775082588, 0.012927819043397903, 0.027341533452272415, 0.01471950113773346, 0.0005006678402423859, 0.03314271941781044, -0.014875004068017006, 0.008784979581832886, 0.032105620950460434, 0.01722051575779915, 0.034326743334531784, -0.032459016889333725, 0.010519061237573624, 0.010817520320415497, 0.029070299118757248, -0.020219186320900917, 0.006042245775461197, 0.02687230333685875, 0.005044292658567429, -0.0011461377143859863, 0.018837779760360718, -0.035444751381874084, 0.0352821908891201, 0.01573917269706726, 0.0015805773437023163, -0.004702899605035782, -0.005327893421053886, -0.011665403842926025, -0.003407161682844162, 0.00895785540342331, 0.023249495774507523, 0.015290997922420502, -0.03466237336397171, -0.005365941673517227, 0.02450565993785858, -0.013499226421117783, 0.028994183987379074, 0.031822364777326584, -0.019559796899557114, 0.013331025838851929, 0.011214043945074081, -0.02460511401295662, -0.0027661994099617004, 0.029300693422555923, 0.01759275421500206, -0.024080384522676468, 0.029285486787557602, -0.03221211954951286, -0.01155099831521511, -0.02145703136920929, -0.016825485974550247, -0.012786941602826118, 0.00824049487709999, 0.014594659209251404, -0.018948491662740707, 0.004277568310499191, -0.02549636922776699, -0.021280433982610703, -0.023557856678962708, 0.0037378594279289246, 0.0204763226211071, -0.028092019259929657, 0.00824793055653572, 0.020264431834220886, 0.004454504698514938, -0.034009747207164764, 0.01654268056154251, -0.0289046261459589, -0.03117372840642929, -0.0026229098439216614, 0.020015351474285126, 0.010118067264556885, 0.03124677762389183, -0.027994200587272644, 0.028998713940382004, 0.014551136642694473, 0.0028481706976890564, 0.026069875806570053, -0.022047635167837143, -0.02059982717037201, -0.028216473758220673, -0.020218471065163612, -0.007712731137871742, -0.0035898275673389435, 0.02950948104262352, 0.01832478493452072, 0.001334063708782196, 0.003549136221408844, 0.030756790190935135, -0.03556351363658905, -0.011914597824215889, -0.015033496543765068, -0.025440353900194168, -0.032125458121299744, -0.02943689562380314, -0.028134828433394432, 0.028180178254842758, 0.016818776726722717, 0.0107053741812706, 0.005443848669528961, 0.030120503157377243, 0.00612824410200119, 0.019113097339868546, 0.027599062770605087, -0.006212936714291573, -0.0007441863417625427, 0.027810003608465195, 0.027480389922857285, 0.028442364186048508, 0.005168624222278595, -0.030597791075706482, 0.017485707998275757, -0.01683623157441616, -0.025120344012975693, 0.02906343713402748, -0.003568597137928009, -0.025037705898284912, -0.0007095225155353546, 0.002689756453037262, -0.034221526235342026, 0.034038837999105453, -0.00771733745932579, 0.027073021978139877, 0.026684660464525223, 0.018120422959327698, -0.025253914296627045, 0.021815523505210876, 0.023082241415977478, -0.012611137703061104, -0.00476490706205368, -0.023633668199181557, 0.011575255542993546, 0.03330625966191292, -0.022741638123989105, -0.019281988963484764, 0.025336697697639465, 0.00015489012002944946, 0.010485023260116577, 0.020636189728975296, 0.00881621241569519, 0.017619308084249496, 0.034647371619939804, -0.014446459710597992, 0.023954644799232483, 0.012996997684240341, 0.032999929040670395, -0.026336973533034325, -0.03435203433036804, -0.01021726243197918, 0.023150712251663208, -0.017849288880825043, -0.013686222955584526, 0.02575184404850006, -0.007870785892009735, -0.0014177300035953522, -0.017284773290157318, 0.012497492134571075, 0.004292212426662445, -0.03265863656997681, -0.0034208111464977264, 0.012285169214010239, 0.0006111450493335724, 0.021711401641368866, 0.018380843102931976, -0.021427014842629433, 0.013313829898834229, 0.021052386611700058, 0.0006093122065067291, 0.014957919716835022, -0.03509785234928131, 0.022120028734207153, 0.017634160816669464, -0.030274102464318275, 0.033112768083810806, 0.017961814999580383, 0.0347137413918972, 0.017553824931383133, 0.002771396189928055, 0.00977296382188797, 0.009939797222614288, 0.014740880578756332, -0.022056665271520615, -0.003162611275911331, 0.005348440259695053, -0.032076913863420486, -0.03346435725688934, -0.016594547778367996, -0.014401406049728394, -0.022318035364151, 0.024962756782770157, 0.004626572132110596, -0.01199406012892723, -0.027149623259902, 0.007281694561243057, 0.023741602897644043, -0.027904238551855087, 0.010156180709600449, 0.026987198740243912, 0.034972693771123886, -0.006159612908959389, 0.008140578866004944, 0.012559738010168076, -0.012591341510415077, -0.03182077035307884, -0.001585930585861206, 0.032590169459581375, 0.03492400422692299, 0.012668818235397339, 0.027201484888792038, -0.024117782711982727, 0.010239619761705399, 0.0002544224262237549, 0.015827734023332596, 0.0038622096180915833, 0.01662353053689003, 0.025744687765836716, -0.01849321834743023, -0.012241886928677559, -0.006285889074206352, 0.015341237187385559, -0.000998515635728836, -0.004679212346673012, -0.010554986074566841, -0.008957713842391968, -0.005383746698498726, -0.015639927238225937, -0.006806463003158569, -0.0006458833813667297, -0.023330707103013992, 0.005514651536941528, 0.011987116187810898, -0.022439420223236084, 0.029876183718442917, 0.0013649649918079376, -0.012006675824522972, 0.02120353654026985, 0.007945500314235687, 0.028233636170625687, -0.03526543825864792, 0.02516220137476921, 0.007574316114187241, -0.01483587734401226, 0.00651935487985611, 0.0032948441803455353, -0.007101396098732948, -0.01692739687860012, -0.027589723467826843, -0.023180413991212845, 0.032943274825811386, 0.020586352795362473, -0.03128110244870186, 0.01931224763393402, -0.014770491048693657, 0.006563324481248856, -0.030404288321733475, 0.008182752877473831, 0.012216363102197647, -0.0088120698928833, 0.008169714361429214, -0.005068868398666382, 0.008073385804891586, -0.006357613950967789, -0.013690603896975517, 0.028184447437524796, -0.0209943950176239, 0.024143364280462265, -0.025920409709215164, 0.014872785657644272, -0.02700774371623993, -0.0036568380892276764, 0.02163609489798546, 0.0351468063890934, -0.020382920280098915, -0.01647340878844261, -0.013635771349072456, -0.004655096679925919, 0.005139406770467758, 0.026693902909755707, -0.00320599228143692, -0.0038486532866954803, 0.029103722423315048, 0.015327449887990952, -0.006194429472088814, -0.03215772658586502, -0.034765757620334625, 0.02903178706765175, -0.030742719769477844, -0.03381677716970444, -0.004328634589910507, 0.019106797873973846, 0.003552369773387909, -0.014956701546907425, 0.012952014803886414, -0.015589557588100433, -0.0193623099476099, -0.012939078733325005, -0.01708817481994629, -0.02932046353816986, 0.017863783985376358, -0.024518916383385658, -0.018826443701982498, -0.028313079848885536, 0.024465907365083694, -0.0030944757163524628, -0.01874096505343914, -0.012548843398690224, 0.007994469255208969, -0.009915348142385483, 0.03029690310359001, -0.0034970268607139587, -0.02503354847431183, -0.01351335272192955, -0.024990197271108627, 0.009413287043571472, -0.003930814564228058, 0.007026392966508865, -0.031100312247872353, 0.0021349824965000153, -0.031981974840164185, -0.012127485126256943, -0.017321599647402763, 0.027077089995145798, 0.035159263759851456, -0.013182533904910088, -0.025467758998274803, 0.03214745596051216, 0.035135384649038315, 0.02418339252471924, 0.010026805102825165, 0.0014540180563926697, -0.003113541752099991, 0.02832547202706337, 0.01902991533279419, 0.0073125921189785, 0.005680311471223831, -0.03314804285764694, 0.022922299802303314, -0.010614149272441864, -0.01124974712729454, 0.0342419259250164, 0.01754669100046158, 0.009094584733247757, 0.00815264880657196, 5.59389591217041e-05, 0.018654849380254745, 0.033552419394254684, 0.005709625780582428, -0.02782702073454857, 0.00869894027709961, -0.02702338434755802, 0.010385870933532715, -0.008942745625972748, 0.004479400813579559, 0.021847087889909744, 0.005377616733312607, 0.021003592759370804, -0.029584264382719994, -0.014371246099472046, 0.02021121233701706, -0.027508506551384926, -0.02519136294722557, -0.02056022733449936, -0.01014711707830429, 0.03501467779278755, 0.022495415061712265, -0.004702381789684296, 0.019804727286100388, -0.01609455794095993, -0.0207282155752182, -0.023055996745824814, -0.03005642630159855, -0.0007190592586994171, -0.03268631547689438, -0.01427125558257103, -0.019542932510375977, 0.02410661056637764, 0.027481745928525925, -0.0309213325381279, 0.007217708975076675, 0.01912972703576088, 0.00526018813252449, 0.020326867699623108, -0.024697590619325638, 0.018386952579021454, 0.025057464838027954, 0.015652768313884735, 0.017091289162635803, 0.02076135203242302, -0.020039856433868408, -0.021681148558855057, -0.014008577913045883, -0.026318728923797607, -0.02087811566889286, -0.030888132750988007, 0.00635799765586853, 0.0017088092863559723, -0.0007378794252872467, 0.034459736198186874, -0.010740472003817558, -0.017004240304231644, 0.008454665541648865, -0.02829180657863617, -0.02160682901740074, 0.02908625826239586, -0.03210638836026192, 0.006835736334323883, 0.00930032879114151, 0.024689212441444397, 0.030483584851026535, 0.017331574112176895, 0.01457875594496727, 0.02764260396361351, 0.03568107262253761, -0.008697688579559326, 0.015103880316019058, 0.0026158317923545837, 0.00886741653084755, -0.02724607288837433, -0.03197551518678665, -0.00974448211491108, 